%YAML:1.0
---
opencv_ml_svm:
   format: 3
   svmType: C_SVC
   kernel:
      type: RBF
      gamma: 5.0624999999999998e-01
   C: 1.2500000000000000e+01
   term_criteria: { epsilon:1.1920928955078125e-07, iterations:1000 }
   var_count: 81
   class_count: 10
   class_labels: !!opencv-matrix
      rows: 10
      cols: 1
      dt: i
      data: [ 0, 1, 2, 3, 4, 5, 6, 7, 8, 9 ]
   sv_total: 1066
   support_vectors:
      - [ 5.43912351e-01, 5.43912351e-01, 1.76339164e-01, 0.,
          9.09431353e-02, 5.43912351e-01, 2.52017796e-01, 3.71198468e-02,
          5.28161153e-02, 4.31061834e-01, 1.41587943e-01, 5.90604097e-02,
          4.31061834e-01, 4.31061834e-01, 4.31061834e-01, 6.70130402e-02,
          1.96459800e-01, 4.31061834e-01, 5.03467768e-02, 7.91441929e-03,
          2.96381801e-01, 5.24881721e-01, 1.08969651e-01, 0.,
          2.56791323e-01, 5.24881721e-01, 5.24881721e-01, 1.42264470e-01,
          4.29196507e-01, 4.29196507e-01, 2.94899017e-01, 6.11576028e-02,
          4.29196507e-01, 4.29196507e-01, 3.83457154e-01, 2.98300516e-02,
          3.27521682e-01, 3.74271959e-01, 3.74271959e-01, 3.74271959e-01,
          3.74271959e-01, 3.74271959e-01, 3.74271959e-01, 1.49787709e-01,
          1.61483839e-01, 7.80656412e-02, 4.28457975e-01, 4.28457975e-01,
          4.28457975e-01, 2.57923510e-02, 2.36051455e-01, 4.28457975e-01,
          4.28457975e-01, 1.23931997e-01, 3.51656049e-01, 2.98060089e-01,
          3.70431900e-01, 3.70431900e-01, 3.70431900e-01, 2.18627006e-01,
          3.70431900e-01, 2.23384202e-01, 3.70431900e-01, 4.43263263e-01,
          4.26845998e-01, 2.47267876e-02, 1.36723891e-01, 4.43263263e-01,
          4.43263263e-01, 7.92316347e-02, 4.31642830e-02, 4.43263263e-01,
          4.63121414e-01, 4.63121414e-01, 1.61637217e-01, 2.80622207e-02,
          3.29416782e-01, 4.63121414e-01, 4.63121414e-01, 3.35781537e-02,
          2.98562311e-02 ]
      - [ 4.71256554e-01, 4.71256554e-01, 4.47073728e-02, 1.74697011e-03,
          3.27642143e-01, 4.68693674e-01, 4.45864163e-03, 0.,
          4.71256554e-01, 5.39401710e-01, 9.24511254e-02, 5.47109731e-03,
          2.53976613e-01, 5.39401710e-01, 1.86603144e-01, 2.87810748e-04,
          1.17680453e-01, 5.39401710e-01, 4.42844123e-01, 2.60921312e-03,
          4.45965156e-02, 4.96943057e-01, 1.82078257e-01, 0.,
          5.68209700e-02, 5.06704748e-01, 5.06704748e-01, 4.07828182e-01,
          4.07828182e-01, 2.83326805e-01, 2.34093368e-01, 4.07828182e-01,
          4.07828182e-01, 1.61401406e-01, 5.64138405e-02, 4.07828182e-01,
          4.17650670e-01, 3.62652302e-01, 6.21218905e-02, 4.15776372e-01,
          4.17650670e-01, 3.99808407e-01, 1.25221238e-02, 6.54385835e-02,
          4.17650670e-01, 3.43147129e-01, 3.43147129e-01, 3.00264448e-01,
          3.43147129e-01, 2.86641121e-01, 3.43147129e-01, 3.43147129e-01,
          3.43147129e-01, 3.43147129e-01, 3.11993331e-01, 1.33912027e-01,
          3.98246437e-01, 4.76144165e-01, 4.76144165e-01, 1.83020964e-01,
          4.66305017e-02, 7.45712221e-02, 4.76144165e-01, 4.99724686e-01,
          2.76780516e-01, 1.27047058e-02, 1.55952781e-01, 4.99724686e-01,
          4.99724686e-01, 7.88916275e-03, 4.00940478e-02, 3.78252238e-01,
          3.41876805e-01, 4.65133101e-01, 4.96985614e-02, 2.96517950e-03,
          5.33017039e-01, 5.33017039e-01, 2.99999595e-01, 2.44214330e-02,
          1.26174549e-02 ]
      - [ 3.98126811e-01, 3.98126811e-01, 3.98126811e-01, 4.38465551e-02,
          1.67854652e-01, 3.98126811e-01, 3.72649074e-01, 3.98126811e-01,
          1.85830429e-01, 4.21533197e-01, 1.03488341e-01, 2.79423483e-02,
          4.21533197e-01, 4.21533197e-01, 4.21533197e-01, 1.72600627e-01,
          2.57014334e-01, 4.21533197e-01, 1.44877419e-01, 1.10357096e-02,
          3.48192424e-01, 5.10192215e-01, 2.46470779e-01, 5.50422864e-03,
          1.04350649e-01, 5.10192215e-01, 5.10192215e-01, 8.96132737e-02,
          4.25282687e-01, 4.25282687e-01, 8.73899087e-02, 2.66029447e-01,
          4.25282687e-01, 4.25282687e-01, 4.25282687e-01, 7.06089139e-02,
          2.11369589e-01, 8.76623392e-02, 6.60166144e-02, 3.86223972e-01,
          4.40591484e-01, 4.40591484e-01, 4.40591484e-01, 4.40591484e-01,
          1.15006849e-01, 1.96267426e-01, 4.15694058e-01, 4.15694058e-01,
          4.15694058e-01, 3.82268392e-02, 2.77077496e-01, 4.15694058e-01,
          4.15694058e-01, 1.22823060e-01, 8.22487697e-02, 1.24462880e-01,
          4.32571501e-01, 4.32571501e-01, 4.32571501e-01, 8.91799629e-02,
          1.72856569e-01, 4.32571501e-01, 4.32571501e-01, 4.55939859e-01,
          2.14523345e-01, 2.31627584e-03, 3.17278683e-01, 4.55939859e-01,
          3.75474095e-01, 2.01200396e-02, 2.89353013e-01, 4.55939859e-01,
          4.91106957e-01, 4.91106957e-01, 8.90631601e-02, 2.51084613e-03,
          3.42173725e-01, 4.91106957e-01, 3.80904615e-01, 2.81734150e-02,
          2.51686890e-02 ]
      - [ 3.84374231e-01, 3.84374231e-01, 3.84374231e-01, 2.94442236e-01,
          3.84374231e-01, 2.28862092e-01, 3.04012131e-02, 3.42700928e-01,
          3.84374231e-01, 4.78349507e-01, 1.73281312e-01, 8.47622156e-02,
          4.78349507e-01, 4.78349507e-01, 1.00569777e-01, 3.41385533e-03,
          1.80588871e-01, 4.78349507e-01, 1.51234016e-01, 0.,
          2.84941107e-01, 4.77612257e-01, 2.44744152e-01, 0.,
          1.88315645e-01, 5.32514274e-01, 5.32514274e-01, 1.31791145e-01,
          1.50703385e-01, 4.50637013e-01, 4.50637013e-01, 1.97394028e-01,
          1.06409945e-01, 3.04689825e-01, 4.50637013e-01, 4.50637013e-01,
          3.63459915e-01, 3.63459915e-01, 3.63459915e-01, 3.63459915e-01,
          3.63459915e-01, 1.70351520e-01, 2.06464097e-01, 3.63459915e-01,
          3.63459915e-01, 2.12275669e-01, 3.96095335e-01, 3.96095335e-01,
          3.62051010e-01, 9.27640274e-02, 3.96095335e-01, 3.96095335e-01,
          3.96095335e-01, 1.63824037e-01, 1.51110023e-01, 3.97502519e-02,
          4.63470757e-01, 4.63470757e-01, 4.63470757e-01, 2.77461428e-02,
          1.67053953e-01, 4.63470757e-01, 2.88199455e-01, 4.73442763e-01,
          2.60186136e-01, 3.02181989e-02, 3.41307342e-01, 4.73442763e-01,
          4.73442763e-01, 7.38399923e-02, 1.61280274e-01, 3.25979918e-01,
          3.33836466e-01, 3.19499344e-01, 1.04000695e-01, 0.,
          5.06025851e-01, 5.06025851e-01, 5.06025851e-01, 4.71730568e-02,
          1.38448849e-02 ]
      - [ 5.88308752e-01, 5.88308752e-01, 2.96656728e-01, 7.11034704e-03,
          1.08934857e-01, 2.82294482e-01, 3.09117466e-01, 5.35297319e-02,
          1.54529661e-01, 4.40969437e-01, 1.35316819e-01, 7.78692812e-02,
          4.40969437e-01, 4.40969437e-01, 3.18401247e-01, 1.88223004e-01,
          2.37902120e-01, 4.40969437e-01, 1.25730157e-01, 5.54031983e-04,
          2.33268902e-01, 5.30920088e-01, 1.81793422e-01, 3.28910886e-03,
          2.13979185e-01, 5.30920088e-01, 5.30920088e-01, 1.50151819e-01,
          4.56850618e-01, 4.56850618e-01, 8.75055790e-02, 2.20613286e-01,
          4.56850618e-01, 4.56850618e-01, 2.79403806e-01, 6.03908151e-02,
          3.63009304e-01, 1.58543706e-01, 3.38095129e-01, 3.63009304e-01,
          3.63009304e-01, 3.63009304e-01, 3.63009304e-01, 2.57438004e-01,
          3.63009304e-01, 1.30369306e-01, 4.37568426e-01, 4.37568426e-01,
          4.37568426e-01, 4.58007008e-02, 1.13755032e-01, 4.37568426e-01,
          4.37568426e-01, 7.91484267e-02, 1.18011117e-01, 3.60357225e-01,
          3.76882583e-01, 3.76882583e-01, 3.76882583e-01, 3.76882583e-01,
          3.76882583e-01, 3.76882583e-01, 1.44181186e-02, 4.03306454e-01,
          4.03306454e-01, 2.06836522e-01, 3.20785135e-01, 4.03306454e-01,
          4.03306454e-01, 1.79818064e-01, 6.83491752e-02, 4.03306454e-01,
          4.34766024e-01, 4.34766024e-01, 2.12729692e-01, 1.92056634e-02,
          4.26289678e-01, 4.34766024e-01, 4.34766024e-01, 6.65346459e-02,
          8.83091241e-02 ]
      - [ 5.23227513e-01, 5.23227513e-01, 3.19872826e-01, 3.06151714e-02,
          1.19115703e-01, 5.23227513e-01, 2.13108823e-01, 0.,
          1.03023455e-01, 3.92634064e-01, 2.28046089e-01, 1.78946406e-01,
          3.77071559e-01, 3.92634064e-01, 3.92634064e-01, 7.04316497e-02,
          3.85046721e-01, 3.92634064e-01, 5.67604415e-02, 2.48681977e-02,
          4.25501972e-01, 4.04732585e-01, 2.08477393e-01, 8.89179669e-03,
          4.48433638e-01, 4.48433638e-01, 4.48433638e-01, 2.03497842e-01,
          3.83072793e-01, 3.83072793e-01, 3.83072793e-01, 2.40026325e-01,
          3.83072793e-01, 3.83072793e-01, 2.62150258e-01, 3.07737648e-01,
          3.88584822e-01, 3.88584822e-01, 3.88584822e-01, 2.05506787e-01,
          3.88584822e-01, 3.88584822e-01, 3.13249916e-01, 2.56589949e-01,
          1.86896011e-01, 8.28830004e-02, 4.38901424e-01, 4.38901424e-01,
          1.45561188e-01, 3.85906436e-02, 4.38901424e-01, 4.38901424e-01,
          4.38901424e-01, 5.38198501e-02, 2.20975652e-01, 3.95673811e-01,
          3.95673811e-01, 3.95673811e-01, 3.95673811e-01, 5.78762814e-02,
          6.72357678e-02, 3.95673811e-01, 3.95673811e-01, 4.09994215e-01,
          4.09994215e-01, 6.10461906e-02, 3.33608061e-01, 4.09994215e-01,
          4.09994215e-01, 2.28233159e-01, 2.44107768e-01, 3.11164320e-01,
          2.93086469e-01, 5.22745132e-01, 1.96681637e-02, 0.,
          1.00518368e-01, 5.58670223e-01, 5.58670223e-01, 2.33150125e-02,
          0. ]
      - [ 5.55936575e-01, 5.55936575e-01, 8.37534890e-02, 0.,
          1.87214762e-01, 5.55936575e-01, 1.11500584e-01, 0.,
          1.12940259e-01, 4.78291988e-01, 1.22532032e-01, 2.50115171e-02,
          2.53271729e-01, 4.78291988e-01, 4.78291988e-01, 4.17565694e-03,
          1.91349499e-02, 4.78291988e-01, 2.44367808e-01, 3.30334865e-02,
          4.23333049e-01, 4.47061032e-01, 3.08347672e-01, 6.50860518e-02,
          2.37931728e-01, 4.47061032e-01, 4.47061032e-01, 2.90475130e-01,
          4.35700983e-01, 4.35700983e-01, 1.36236653e-01, 1.11103199e-01,
          4.35700983e-01, 4.35700983e-01, 1.93455651e-01, 2.89138675e-01,
          3.69392604e-01, 3.69392604e-01, 2.97307819e-01, 2.81046748e-01,
          3.69392604e-01, 3.69392604e-01, 1.01119608e-01, 3.69392604e-01,
          3.69392604e-01, 1.03827402e-01, 4.21378374e-01, 4.21378374e-01,
          2.95559019e-01, 6.91839978e-02, 4.21378374e-01, 4.21378374e-01,
          4.21378374e-01, 7.12070316e-02, 3.65950726e-02, 1.55185893e-01,
          4.05929148e-01, 4.05929148e-01, 4.05929148e-01, 3.73746932e-01,
          4.05929148e-01, 2.99330860e-01, 2.86571622e-01, 3.72495085e-01,
          3.37614208e-01, 2.22716153e-01, 3.72495085e-01, 3.72495085e-01,
          3.72495085e-01, 1.33116376e-02, 3.72495085e-01, 3.72495085e-01,
          3.61216843e-01, 5.01983941e-01, 4.30511981e-02, 1.64251924e-02,
          2.98483759e-01, 5.01983941e-01, 5.01983941e-01, 2.50590201e-02,
          1.29234612e-01 ]
      - [ 4.49997485e-01, 4.49997485e-01, 1.04003161e-01, 5.19431904e-02,
          2.25144904e-02, 9.21458825e-02, 4.49997485e-01, 4.03734624e-01,
          4.49997485e-01, 5.02952039e-01, 4.72623229e-01, 4.38331626e-02,
          7.42478818e-02, 2.66694039e-01, 4.01268810e-01, 7.04696104e-02,
          1.45397276e-01, 5.02952039e-01, 4.66334134e-01, 1.99921317e-02,
          2.35727981e-01, 1.38738111e-01, 2.19432652e-01, 1.76093847e-01,
          9.45262685e-02, 5.53936064e-01, 5.53936064e-01, 3.41251373e-01,
          3.58715594e-01, 3.58715594e-01, 3.58715594e-01, 2.89644629e-01,
          2.58960664e-01, 3.58715594e-01, 3.58715594e-01, 2.92616963e-01,
          4.15634543e-01, 4.15634543e-01, 1.40849262e-01, 3.10394853e-01,
          4.15634543e-01, 4.15634543e-01, 1.03416786e-01, 7.21736774e-02,
          4.15634543e-01, 3.36443961e-01, 3.59225899e-01, 3.59225899e-01,
          1.64031267e-01, 2.86445081e-01, 3.59225899e-01, 3.59225899e-01,
          3.59225899e-01, 3.59225899e-01, 2.24084243e-01, 5.09320945e-02,
          1.87640056e-01, 5.68914950e-01, 5.68914950e-01, 1.62708368e-02,
          2.20270723e-01, 2.42601827e-01, 3.89017254e-01, 5.21813631e-01,
          1.01467371e-01, 3.66549054e-03, 3.23046595e-01, 5.21813631e-01,
          4.25009638e-01, 1.01147667e-02, 2.04685666e-02, 3.92921388e-01,
          2.79919416e-01, 2.33493298e-01, 4.03002612e-02, 3.61105776e-03,
          5.58666885e-01, 5.58666885e-01, 4.83686864e-01, 2.48821341e-02,
          3.34765203e-02 ]
      - [ 6.45579398e-01, 6.45579398e-01, 2.52952166e-02, 0.,
          4.53758836e-02, 3.52633625e-01, 1.69458106e-01, 2.67930627e-02,
          5.93789816e-02, 4.44883645e-01, 3.42256159e-01, 8.61824602e-02,
          2.70945907e-01, 4.44883645e-01, 4.44883645e-01, 6.05439283e-02,
          4.71845083e-02, 4.44883645e-01, 2.80912191e-01, 1.64563488e-02,
          3.90150815e-01, 4.36683774e-01, 1.60677493e-01, 4.99974005e-02,
          1.76774919e-01, 5.06597102e-01, 5.06597102e-01, 3.77538174e-01,
          3.77538174e-01, 3.77538174e-01, 3.77538174e-01, 7.46749341e-02,
          3.67720038e-01, 3.77538174e-01, 3.77538174e-01, 1.49474917e-02,
          3.05038214e-01, 3.61327916e-01, 3.61327916e-01, 2.94162095e-01,
          3.61327916e-01, 3.61327916e-01, 3.61327916e-01, 3.61327916e-01,
          1.82928979e-01, 5.13084382e-02, 4.73222733e-01, 4.73222733e-01,
          2.26110533e-01, 5.45097739e-02, 1.85169294e-01, 4.73222733e-01,
          4.73222733e-01, 9.21773165e-02, 6.42561214e-03, 3.27560604e-02,
          5.05724430e-01, 5.05724430e-01, 4.03141350e-01, 1.91022251e-02,
          2.28040308e-01, 5.05724430e-01, 1.08041920e-01, 3.83272231e-01,
          3.83272231e-01, 1.21076539e-01, 3.83272231e-01, 3.83272231e-01,
          2.95473069e-01, 1.13232635e-01, 3.83272231e-01, 3.83272231e-01,
          2.49626830e-01, 4.64798510e-01, 2.49435872e-01, 3.26399691e-02,
          4.64798510e-01, 4.64798510e-01, 4.64798510e-01, 4.47554849e-02,
          6.00551292e-02 ]
      - [ 4.35408443e-01, 4.35408443e-01, 4.35408443e-01, 1.05301728e-02,
          3.08539867e-02, 1.78939432e-01, 1.21102497e-01, 4.35408443e-01,
          4.35408443e-01, 4.58447665e-01, 3.87068450e-01, 1.75147522e-02,
          3.63232717e-02, 4.58447665e-01, 4.58447665e-01, 1.76342223e-02,
          5.44490255e-02, 4.58447665e-01, 4.21965092e-01, 9.50643569e-02,
          2.70019561e-01, 2.54560947e-01, 4.46864933e-01, 1.17291421e-01,
          2.40646541e-01, 4.46864933e-01, 4.46864933e-01, 3.32778692e-01,
          3.32778692e-01, 3.32778692e-01, 3.32778692e-01, 3.32778692e-01,
          3.32778692e-01, 3.32778692e-01, 3.32778692e-01, 3.32778692e-01,
          3.93279582e-01, 3.93279582e-01, 7.39226490e-02, 3.20859224e-01,
          3.93279582e-01, 3.93279582e-01, 2.29311049e-01, 2.48451829e-01,
          3.93279582e-01, 3.79592538e-01, 3.79592538e-01, 3.79592538e-01,
          1.44455031e-01, 2.97928065e-01, 3.79592538e-01, 3.79592538e-01,
          3.79592538e-01, 1.48446456e-01, 1.17236404e-02, 1.11240722e-01,
          4.78593916e-01, 5.85855186e-01, 5.85855186e-01, 9.10295397e-02,
          9.67269689e-02, 1.39703855e-01, 1.70216724e-01, 3.63929182e-01,
          9.77709517e-02, 1.39702126e-01, 4.50016111e-01, 4.50016111e-01,
          4.50016111e-01, 9.52996984e-02, 1.21838525e-01, 4.50016111e-01,
          3.04721057e-01, 2.64452845e-01, 1.75263379e-02, 8.72397870e-02,
          5.60300887e-01, 5.60300887e-01, 4.35383350e-01, 3.29924896e-02,
          7.19395876e-02 ]
      - [ 6.09991014e-01, 6.09991014e-01, 7.64692575e-02, 2.78202686e-02,
          7.94535503e-02, 2.48401195e-01, 9.10135955e-02, 2.62154583e-02,
          4.07581985e-01, 4.91446644e-01, 8.11607242e-02, 0.,
          1.24722585e-01, 4.91446644e-01, 4.91446644e-01, 7.50042275e-02,
          3.52711678e-02, 4.91446644e-01, 4.37230974e-01, 3.18186008e-03,
          9.35304165e-02, 4.56592321e-01, 4.08169568e-01, 3.22713666e-02,
          4.93637472e-02, 4.56592321e-01, 4.56592321e-01, 3.52567106e-01,
          3.52567106e-01, 3.52567106e-01, 3.52567106e-01, 3.52567106e-01,
          3.30572307e-01, 3.52567106e-01, 3.52567106e-01, 1.30669087e-01,
          3.82575244e-01, 1.66584030e-01, 2.49855462e-02, 2.99366534e-01,
          3.82575244e-01, 3.82575244e-01, 3.82575244e-01, 3.82575244e-01,
          3.82575244e-01, 3.39040071e-01, 3.39040071e-01, 3.39040071e-01,
          3.39040071e-01, 3.39040071e-01, 3.39040071e-01, 3.39040071e-01,
          3.39040071e-01, 2.77537733e-01, 0., 1.60886738e-02,
          5.26759386e-01, 5.26759386e-01, 4.24906820e-01, 7.31940800e-03,
          9.43110436e-02, 4.54676569e-01, 2.08098084e-01, 4.00369167e-01,
          1.59647241e-01, 8.68982002e-02, 4.00369167e-01, 4.00369167e-01,
          4.00369167e-01, 3.44802551e-02, 4.00369167e-01, 4.00369167e-01,
          4.90048259e-01, 4.90048259e-01, 2.77090035e-02, 5.56301838e-03,
          4.62204576e-01, 4.90048259e-01, 2.37509772e-01, 8.45558289e-03,
          6.12309426e-02 ]
      - [ 5.52784204e-01, 5.52784204e-01, 1.90781564e-01, 1.23901116e-02,
          1.81670070e-01, 8.95322859e-02, 1.06129544e-02, 9.21356399e-03,
          5.52784204e-01, 6.30425692e-01, 8.38353857e-02, 9.63842031e-03,
          9.65462923e-02, 4.22965497e-01, 5.87867238e-02, 1.14903704e-03,
          5.76137938e-03, 6.30425692e-01, 5.48894703e-01, 2.33460329e-02,
          2.09328998e-02, 2.62880493e-02, 5.34097813e-02, 8.42920132e-03,
          2.93367416e-01, 5.48894703e-01, 5.48894703e-01, 3.46586108e-01,
          3.46586108e-01, 3.46586108e-01, 3.46586108e-01, 3.46586108e-01,
          2.64114618e-01, 3.46586108e-01, 2.93133408e-01, 3.46586108e-01,
          4.49835867e-01, 1.59580395e-01, 2.43517756e-01, 4.49835867e-01,
          4.49835867e-01, 2.95192182e-01, 7.52104968e-02, 9.23881009e-02,
          4.49835867e-01, 3.17731202e-01, 1.56246364e-01, 3.77585262e-01,
          1.24249220e-01, 3.77585262e-01, 3.77585262e-01, 3.77585262e-01,
          3.77585262e-01, 3.77585262e-01, 3.39568853e-02, 2.23418027e-02,
          2.00573891e-01, 6.52163208e-01, 6.52163208e-01, 2.95215454e-02,
          7.62238279e-02, 1.08329967e-01, 2.87325978e-01, 3.54328692e-01,
          4.62587662e-02, 3.21251266e-02, 3.50932688e-01, 5.60766280e-01,
          5.60766280e-01, 8.99331365e-03, 2.41483636e-02, 3.36071521e-01,
          1.17274500e-01, 6.24950305e-02, 8.23672488e-02, 6.58164769e-02,
          6.39804363e-01, 6.39804363e-01, 3.81098956e-01, 2.47835293e-02,
          1.69473365e-02 ]
      - [ 5.10574222e-01, 5.10574222e-01, 1.60003796e-01, 0.,
          2.24438682e-01, 5.10574222e-01, 3.52216333e-01, 2.92185731e-02,
          1.09355420e-01, 4.23495620e-01, 1.77818239e-01, 1.97811037e-01,
          4.23495620e-01, 4.23495620e-01, 4.23495620e-01, 9.49521139e-02,
          1.38788417e-01, 4.23495620e-01, 5.00753708e-02, 6.44841120e-02,
          4.84930724e-01, 4.84930724e-01, 1.05711974e-01, 3.86160798e-02,
          1.87599227e-01, 4.84930724e-01, 4.84930724e-01, 1.04262985e-01,
          4.10821259e-01, 4.22350019e-01, 2.72644609e-01, 1.11780383e-01,
          4.22350019e-01, 4.22350019e-01, 4.22350019e-01, 1.25650406e-01,
          4.42777157e-01, 4.42777157e-01, 3.46165091e-01, 2.36080796e-01,
          2.95955181e-01, 4.42777157e-01, 1.83653116e-01, 2.62731433e-01,
          2.03745112e-01, 2.62518138e-01, 4.19051707e-01, 4.19051707e-01,
          2.02247038e-01, 3.39112654e-02, 4.19051707e-01, 4.19051707e-01,
          4.19051707e-01, 8.25993270e-02, 1.47986338e-01, 6.89405203e-02,
          4.48840618e-01, 4.48840618e-01, 4.48840618e-01, 4.41828277e-03,
          1.25507250e-01, 4.48840618e-01, 3.83745760e-01, 4.68267918e-01,
          4.68267918e-01, 6.58396482e-02, 1.63833305e-01, 4.68267918e-01,
          4.68267918e-01, 1.39496364e-02, 1.54123560e-01, 2.51194328e-01,
          3.22389245e-01, 5.28957009e-01, 4.02648114e-02, 3.86480038e-04,
          3.68342966e-01, 6.21845126e-01, 2.92879283e-01, 1.71295889e-02,
          0. ]
      - [ 4.98862237e-01, 4.98862237e-01, 1.15948707e-01, 2.68868208e-02,
          2.78999984e-01, 3.93792242e-01, 3.60373259e-02, 6.92307577e-03,
          4.98862237e-01, 5.58205307e-01, 4.94622029e-02, 7.09484750e-03,
          8.27578753e-02, 5.58205307e-01, 2.23882049e-01, 1.50962581e-03,
          1.32419216e-02, 5.58205307e-01, 4.74870205e-01, 1.40496463e-01,
          1.15556642e-01, 1.96107179e-01, 4.74870205e-01, 3.01720798e-02,
          1.44183666e-01, 4.74870205e-01, 4.74870205e-01, 3.32778692e-01,
          3.32778692e-01, 3.32778692e-01, 3.32778692e-01, 3.32778692e-01,
          3.32778692e-01, 3.32778692e-01, 3.32778692e-01, 3.32778692e-01,
          4.75934565e-01, 2.76788265e-01, 1.30305309e-02, 1.56359494e-01,
          4.75934565e-01, 4.60287422e-01, 2.11196560e-02, 4.65274975e-02,
          4.75934565e-01, 3.78924578e-01, 3.78924578e-01, 2.24337980e-01,
          1.84452116e-01, 3.78924578e-01, 3.78924578e-01, 3.78924578e-01,
          3.78924578e-01, 2.24413559e-01, 1.40402168e-01, 1.49225248e-02,
          2.21266299e-01, 5.82293212e-01, 5.82293212e-01, 2.05505323e-02,
          5.78966364e-02, 1.79962099e-01, 4.59347159e-01, 5.13387144e-01,
          5.45107611e-02, 5.49197139e-04, 3.49714458e-01, 5.13387144e-01,
          5.13387144e-01, 1.79259025e-03, 1.38106933e-02, 2.80549288e-01,
          2.80668288e-01, 1.49468780e-01, 4.17198637e-04, 0.,
          6.31466389e-01, 6.31466389e-01, 3.06876242e-01, 1.10129816e-02,
          2.80276388e-02 ]
      - [ 6.31945908e-01, 3.52810204e-01, 1.14316933e-01, 6.62633255e-02,
          1.42718881e-01, 1.63756654e-01, 6.82918504e-02, 3.45889926e-02,
          6.31945908e-01, 5.44676542e-01, 8.06806013e-02, 2.90481448e-02,
          5.25370575e-02, 5.44676542e-01, 3.06322515e-01, 2.34631300e-02,
          6.75706845e-03, 5.44676542e-01, 4.88282412e-01, 1.25606477e-01,
          1.62955850e-01, 1.00471169e-01, 1.95927605e-01, 9.87522379e-02,
          4.23436433e-01, 4.88282412e-01, 4.88282412e-01, 4.07336056e-01,
          1.45044640e-01, 2.16850445e-01, 4.07336056e-01, 4.07336056e-01,
          2.42398962e-01, 2.41753474e-01, 3.89412135e-01, 4.01568115e-01,
          3.96071494e-01, 3.96071494e-01, 7.69412518e-02, 3.90925556e-01,
          3.96071494e-01, 3.96071494e-01, 7.86362886e-02, 2.16225982e-01,
          3.96071494e-01, 3.73211443e-01, 4.21402037e-01, 2.34474465e-01,
          1.16515763e-01, 2.57770002e-01, 4.21402037e-01, 4.21402037e-01,
          3.39319319e-01, 2.71343976e-01, 2.19379701e-02, 4.51044238e-04,
          9.98699069e-02, 6.72180116e-01, 6.72180116e-01, 0.,
          4.26607281e-02, 1.99674711e-01, 1.93628728e-01, 3.60112190e-01,
          9.47961733e-02, 2.45206244e-02, 4.95874256e-01, 4.95874256e-01,
          4.95874256e-01, 1.46623785e-02, 5.69513552e-02, 3.38595480e-01,
          1.88320428e-01, 1.63639128e-01, 1.53961591e-03, 2.09669415e-02,
          6.03976190e-01, 6.03976190e-01, 4.47705775e-01, 5.12906117e-03,
          3.52676138e-02 ]
      - [ 5.50527632e-01, 5.50527632e-01, 7.59126768e-02, 2.16505975e-02,
          4.90543544e-02, 5.50527632e-01, 2.72075444e-01, 2.14005564e-03,
          5.09205237e-02, 4.46148068e-01, 4.46148068e-01, 2.56209463e-01,
          1.86161086e-01, 4.46148068e-01, 4.46148068e-01, 6.73001036e-02,
          5.00545949e-02, 3.03343236e-01, 2.86207378e-01, 2.90542245e-01,
          3.59837860e-01, 3.29558730e-01, 2.74278104e-01, 1.94188654e-01,
          3.99437159e-01, 3.99437159e-01, 3.99437159e-01, 2.81507403e-01,
          3.90111268e-01, 3.90111268e-01, 3.68776292e-01, 5.08603118e-02,
          3.90111268e-01, 3.90111268e-01, 3.90111268e-01, 1.31680429e-01,
          2.01070175e-01, 3.76094162e-01, 3.76094162e-01, 3.76094162e-01,
          3.76094162e-01, 3.76094162e-01, 3.76094162e-01, 3.11021715e-01,
          1.01970151e-01, 1.17641352e-01, 4.30459887e-01, 4.30459887e-01,
          4.30459887e-01, 1.50881201e-01, 1.31072745e-01, 4.30459887e-01,
          4.30459887e-01, 1.24245003e-01, 1.69578120e-02, 1.84281655e-02,
          4.90983009e-01, 4.90983009e-01, 1.48743600e-01, 8.94721411e-03,
          8.94814730e-02, 4.90983009e-01, 4.90983009e-01, 3.76256078e-01,
          3.76256078e-01, 6.03240468e-02, 3.76256078e-01, 3.76256078e-01,
          3.76256078e-01, 4.02688682e-02, 3.76256078e-01, 3.76256078e-01,
          4.64118510e-01, 4.76568192e-01, 1.54368907e-01, 1.01199700e-02,
          2.59177327e-01, 4.76568192e-01, 4.76568192e-01, 8.36008191e-02,
          1.97015069e-02 ]
      - [ 6.56441987e-01, 6.56441987e-01, 2.91197225e-02, 0.,
          1.68515027e-01, 2.75786668e-01, 7.28811771e-02, 4.42778580e-02,
          1.37980059e-01, 4.58555758e-01, 3.10660273e-01, 3.29777785e-02,
          7.03542382e-02, 4.58555758e-01, 4.58555758e-01, 1.92248151e-01,
          1.21736757e-01, 4.58555758e-01, 2.52713680e-01, 1.45713955e-01,
          4.08372939e-01, 3.65773976e-01, 3.03713232e-01, 2.02626020e-01,
          1.80363640e-01, 4.71067399e-01, 4.71067399e-01, 3.86133999e-01,
          3.86133999e-01, 2.71322668e-01, 3.26693058e-01, 3.82895261e-01,
          3.86133999e-01, 3.86133999e-01, 2.31235147e-01, 1.39002681e-01,
          4.11841959e-01, 4.11841959e-01, 1.29421696e-01, 1.17985412e-01,
          4.11841959e-01, 4.11841959e-01, 4.11841959e-01, 1.22854993e-01,
          3.19456965e-01, 1.34895727e-01, 4.15071726e-01, 4.15071726e-01,
          1.83418497e-01, 1.27861068e-01, 4.15071726e-01, 4.15071726e-01,
          4.15071726e-01, 2.57377505e-01, 7.07710460e-02, 1.10809498e-01,
          2.02558845e-01, 4.56262112e-01, 4.56262112e-01, 2.57707924e-01,
          3.79362464e-01, 4.02806044e-01, 3.84958327e-01, 4.06261176e-01,
          4.06261176e-01, 4.37427592e-03, 4.06261176e-01, 4.06261176e-01,
          4.06261176e-01, 2.75812354e-02, 6.98057711e-02, 4.06261176e-01,
          2.94669002e-01, 4.77131993e-01, 4.34210040e-02, 5.52283227e-02,
          4.77131993e-01, 4.77131993e-01, 4.69195038e-01, 1.26458826e-02,
          1.41469277e-02 ]
      - [ 6.11695468e-01, 6.11695468e-01, 1.25452444e-01, 0.,
          9.72325951e-02, 4.44448084e-01, 1.26489460e-01, 0.,
          8.26048627e-02, 4.09208149e-01, 4.09208149e-01, 2.19266908e-03,
          1.91701036e-02, 4.09208149e-01, 4.09208149e-01, 3.97653371e-01,
          1.24476403e-02, 4.09208149e-01, 4.03888375e-01, 5.92614450e-02,
          1.92675041e-03, 2.61539340e-01, 4.03888375e-01, 4.03888375e-01,
          3.29268605e-01, 4.03888375e-01, 4.03888375e-01, 1.98045075e-01,
          4.20632899e-01, 4.20632899e-01, 2.89525151e-01, 8.21929052e-02,
          4.20632899e-01, 4.20632899e-01, 3.96369189e-01, 3.40442546e-02,
          3.90365869e-01, 3.73368919e-01, 6.01166673e-02, 1.08948089e-01,
          3.90365869e-01, 3.90365869e-01, 3.90365869e-01, 3.61753523e-01,
          3.17497253e-01, 3.84762436e-01, 3.84762436e-01, 3.75409275e-02,
          1.07366540e-01, 3.84762436e-01, 3.79399419e-01, 3.84762436e-01,
          3.14745367e-01, 3.84762436e-01, 1.30231110e-02, 8.76723006e-02,
          4.71782684e-01, 4.71782684e-01, 4.71782684e-01, 7.62186870e-02,
          2.15982497e-01, 4.71782684e-01, 2.11325362e-01, 4.08953637e-01,
          2.44777188e-01, 1.91083327e-01, 4.08953637e-01, 4.08953637e-01,
          2.22248331e-01, 1.38670802e-01, 4.02355462e-01, 4.08953637e-01,
          4.32674974e-01, 4.32674974e-01, 2.19732570e-03, 4.71280031e-02,
          4.32674974e-01, 4.32674974e-01, 4.32674974e-01, 1.12124495e-01,
          2.11759180e-01 ]
      - [ 5.22202849e-01, 5.22202849e-01, 9.42830965e-02, 1.51669253e-02,
          3.75887841e-01, 5.22202849e-01, 1.46990150e-01, 1.94249093e-04,
          6.84121698e-02, 4.24811572e-01, 1.72275290e-01, 3.23180705e-02,
          4.24811572e-01, 4.24811572e-01, 4.24811572e-01, 1.95891131e-02,
          2.49649897e-01, 4.24811572e-01, 7.43784308e-02, 2.87765674e-02,
          3.26617777e-01, 5.16211212e-01, 2.26761043e-01, 1.98985785e-02,
          1.74832806e-01, 5.16211212e-01, 5.16211212e-01, 2.65215784e-01,
          4.05177981e-01, 4.05177981e-01, 1.01896919e-01, 4.05177981e-01,
          4.05177981e-01, 4.05177981e-01, 4.53118831e-02, 3.03859740e-01,
          4.15207535e-01, 4.15207535e-01, 2.25035280e-01, 4.15207535e-01,
          4.15207535e-01, 4.15207535e-01, 1.11572325e-01, 2.04536449e-02,
          2.65251279e-01, 3.21797162e-01, 3.80014807e-01, 3.80014807e-01,
          3.80014807e-01, 5.92245013e-02, 3.80014807e-01, 3.80014807e-01,
          3.80014807e-01, 1.50582090e-01, 3.70339364e-01, 1.83080330e-01,
          4.23999697e-01, 4.23999697e-01, 4.23999697e-01, 5.03086708e-02,
          4.24289182e-02, 3.18842590e-01, 4.23999697e-01, 4.32670802e-01,
          4.32670802e-01, 1.03269927e-01, 1.67680919e-01, 4.32670802e-01,
          4.32670802e-01, 1.09590605e-01, 9.41601545e-02, 4.32670802e-01,
          4.75076139e-01, 4.88314778e-01, 8.52788705e-03, 1.42480368e-02,
          2.31566831e-01, 4.88314778e-01, 4.88314778e-01, 8.83945823e-03,
          9.71927866e-03 ]
      - [ 4.79996204e-01, 4.79996204e-01, 9.36197862e-02, 0.,
          1.20901864e-03, 1.81544736e-01, 3.98844719e-01, 3.21270883e-01,
          4.79996204e-01, 5.62728763e-01, 2.29306385e-01, 0., 0.,
          2.06486702e-01, 3.01069051e-01, 2.03243226e-01, 3.65902811e-01,
          5.62728763e-01, 5.06784379e-01, 1.37287214e-01, 7.18845502e-02,
          1.52990848e-01, 3.93920749e-01, 3.26473206e-01, 2.27122203e-01,
          3.47150683e-01, 5.06784379e-01, 3.64708096e-01, 3.64708096e-01,
          3.64708096e-01, 3.64708096e-01, 1.93050578e-01, 3.64708096e-01,
          3.64708096e-01, 2.76044428e-01, 2.91230530e-01, 4.77426052e-01,
          2.34584570e-01, 9.36710183e-03, 5.43167405e-02, 4.77426052e-01,
          4.77426052e-01, 1.11154594e-01, 1.14304259e-01, 4.77426052e-01,
          4.04265553e-01, 4.04265553e-01, 1.95787415e-01, 1.96286798e-01,
          4.04265553e-01, 4.04265553e-01, 4.04265553e-01, 2.30072692e-01,
          2.21390054e-01, 1.24562070e-01, 4.91090044e-02, 4.34290469e-01,
          4.90328610e-01, 4.90328610e-01, 3.39449614e-01, 1.93372354e-01,
          2.49352247e-01, 3.04839879e-01, 4.60333109e-01, 1.30039319e-01,
          4.99516651e-02, 4.60333109e-01, 4.60333109e-01, 3.49947870e-01,
          3.19311805e-02, 6.99075684e-02, 4.60333109e-01, 4.74704564e-01,
          4.74704564e-01, 9.30583756e-03, 6.12413809e-02, 4.74704564e-01,
          4.74704564e-01, 2.62405038e-01, 2.06363294e-02, 1.44088641e-01 ]
      - [ 4.90589589e-01, 4.90589589e-01, 4.12452258e-02, 0.,
          1.67673916e-01, 4.90589589e-01, 5.03829680e-02, 5.77107584e-03,
          4.90589589e-01, 4.83906329e-01, 1.59449950e-01, 3.35674956e-02,
          1.52001739e-01, 4.83906329e-01, 4.66996223e-01, 1.55248165e-01,
          2.87690945e-02, 4.83906329e-01, 4.89465147e-01, 1.35157900e-02,
          3.23337525e-01, 3.34371954e-01, 1.65082291e-01, 1.25972778e-02,
          1.80104777e-01, 4.89465147e-01, 4.89465147e-01, 3.36480916e-01,
          3.36480916e-01, 3.01467836e-01, 3.36480916e-01, 3.36480916e-01,
          3.36480916e-01, 3.36480916e-01, 3.36480916e-01, 3.36480916e-01,
          4.26785052e-01, 4.26785052e-01, 4.54134941e-02, 2.50888437e-01,
          4.26785052e-01, 4.26785052e-01, 8.76795352e-02, 1.10969663e-01,
          4.26785052e-01, 3.49439383e-01, 3.49439383e-01, 3.49439383e-01,
          2.57103235e-01, 2.75047868e-01, 3.49439383e-01, 3.49439383e-01,
          3.49439383e-01, 3.49439383e-01, 1.35249242e-01, 9.95557308e-02,
          3.18900168e-01, 5.07362306e-01, 5.07362306e-01, 2.15107519e-02,
          8.40934739e-02, 3.99661630e-01, 4.27709013e-01, 4.71370071e-01,
          3.35573226e-01, 0., 3.19242775e-01, 4.71370071e-01,
          4.71370071e-01, 7.33957347e-03, 7.60077611e-02, 3.29190075e-01,
          3.58031809e-01, 4.49955583e-01, 1.35840764e-02, 2.31953012e-03,
          5.64910650e-01, 5.64910650e-01, 1.57666653e-01, 8.86527635e-03,
          1.83527544e-02 ]
      - [ 6.80210292e-01, 6.80210292e-01, 1.20888323e-01, 5.87986666e-04,
          1.80216152e-02, 1.51937291e-01, 1.10103019e-01, 7.34597910e-03,
          1.32803589e-01, 4.37576771e-01, 1.41726151e-01, 2.40102768e-01,
          2.66007215e-01, 4.37576771e-01, 4.37576771e-01, 1.43375278e-01,
          2.46339783e-01, 4.37576771e-01, 9.70964506e-02, 3.19185406e-02,
          2.10981667e-01, 1.18329607e-01, 8.61697793e-02, 3.25368196e-02,
          3.25574189e-01, 6.36475265e-01, 6.36475265e-01, 3.07418793e-01,
          3.67990941e-01, 3.67990941e-01, 3.67990941e-01, 3.67990941e-01,
          3.67990941e-01, 3.67990941e-01, 1.37664005e-01, 2.65258074e-01,
          3.82524401e-01, 3.82524401e-01, 3.82524401e-01, 2.27269262e-01,
          3.58912230e-01, 3.82524401e-01, 3.82524401e-01, 9.37509164e-02,
          2.74399638e-01, 7.25097731e-02, 4.12729770e-01, 4.24792051e-01,
          8.10668766e-02, 1.95926011e-01, 4.24792051e-01, 4.24792051e-01,
          4.24792051e-01, 2.31086746e-01, 1.95808858e-01, 1.43214613e-01,
          3.58058065e-01, 5.72695673e-01, 5.72695673e-01, 1.01240501e-01,
          3.48240323e-02, 1.21646099e-01, 3.53558004e-01, 5.43753803e-01,
          2.19194874e-01, 2.76601743e-02, 3.28140438e-01, 5.43753803e-01,
          4.20616806e-01, 4.70368378e-02, 3.94765548e-02, 2.57014722e-01,
          6.71952218e-02, 1.06616512e-01, 3.29190753e-02, 1.35071827e-02,
          5.68366706e-01, 5.68366706e-01, 5.68366706e-01, 8.96971449e-02,
          2.88917008e-03 ]
      - [ 6.15816414e-01, 6.15816414e-01, 1.18878677e-01, 1.23733049e-02,
          4.04896960e-02, 3.59318376e-01, 2.10673630e-01, 1.35351568e-01,
          1.66294649e-01, 3.92287582e-01, 3.92287582e-01, 6.08150363e-02,
          3.32937479e-01, 3.92287582e-01, 3.92287582e-01, 2.37501577e-01,
          2.35967204e-01, 3.92287582e-01, 6.76534474e-02, 2.69225682e-03,
          4.57424998e-01, 4.83310312e-01, 2.32859626e-01, 8.16983283e-02,
          1.40307307e-01, 4.83310312e-01, 4.83310312e-01, 1.81572139e-01,
          3.79578441e-01, 3.79578441e-01, 3.42067748e-01, 3.29449147e-01,
          3.79578441e-01, 3.79578441e-01, 3.79578441e-01, 1.31504938e-01,
          1.74148619e-01, 1.41528606e-01, 8.23576897e-02, 1.50640458e-01,
          2.85196275e-01, 4.87635225e-01, 4.87635225e-01, 4.87635225e-01,
          3.47267836e-01, 1.61837429e-01, 4.27742153e-01, 4.27742153e-01,
          4.27742153e-01, 3.30832042e-02, 2.15136990e-01, 4.27742153e-01,
          4.27742153e-01, 8.56778547e-02, 8.98956414e-03, 7.89728016e-02,
          4.49773848e-01, 4.49773848e-01, 4.49773848e-01, 3.70307148e-01,
          9.47086886e-02, 4.49773848e-01, 1.84137419e-01, 4.15616661e-01,
          1.08604215e-01, 1.56784192e-01, 4.15616661e-01, 4.15616661e-01,
          2.98888475e-01, 8.03216174e-02, 4.15616661e-01, 4.15616661e-01,
          4.58665043e-01, 4.58665043e-01, 9.41336751e-02, 3.51080075e-02,
          3.51289034e-01, 4.58665043e-01, 4.58665043e-01, 4.78698723e-02,
          1.34665579e-01 ]
      - [ 4.92128909e-01, 4.92128909e-01, 2.45262042e-01, 1.30553469e-01,
          4.78559792e-01, 2.75404811e-01, 0., 0., 3.58661622e-01,
          5.43168008e-01, 9.83288810e-02, 4.71443757e-02, 1.31364271e-01,
          5.43168008e-01, 2.16019705e-01, 0., 1.83491215e-01,
          5.43168008e-01, 1.90173119e-01, 9.85433459e-02, 2.04600155e-01,
          1.55275345e-01, 3.75180304e-01, 2.23716907e-03, 1.98173448e-01,
          5.92535794e-01, 5.92535794e-01, 3.73935819e-01, 3.73935819e-01,
          3.73935819e-01, 3.73935819e-01, 3.73935819e-01, 3.73935819e-01,
          1.76474539e-04, 1.32166460e-01, 3.73935819e-01, 4.47598219e-01,
          4.47598219e-01, 1.47942469e-01, 1.87315255e-01, 4.47598219e-01,
          4.47598219e-01, 7.87215214e-03, 6.45794868e-02, 3.64617646e-01,
          2.03731313e-01, 4.11220402e-01, 3.57420862e-01, 1.30991071e-01,
          2.68835425e-01, 4.11220402e-01, 4.11220402e-01, 4.11220402e-01,
          2.46568322e-01, 3.48904520e-01, 2.34336272e-01, 4.44568396e-01,
          4.44568396e-01, 4.44568396e-01, 1.21548057e-01, 1.20953226e-03,
          1.16498113e-01, 4.44568396e-01, 5.24864674e-01, 2.71838188e-01,
          7.43103679e-03, 1.77255839e-01, 5.24864674e-01, 5.24864674e-01,
          9.77685489e-03, 2.25634705e-02, 2.49667823e-01, 1.61249101e-01,
          2.38418236e-01, 3.96752357e-03, 9.99634853e-04, 5.55107534e-01,
          5.55107534e-01, 5.43139219e-01, 1.74993053e-02, 4.95301269e-04 ]
      - [ 6.24684989e-01, 6.24684989e-01, 1.39064521e-01, 0.,
          8.79324973e-02, 3.95647317e-01, 1.47956371e-01, 1.22087164e-04,
          8.83250087e-02, 3.86969328e-01, 2.05832705e-01, 2.21028820e-01,
          3.86969328e-01, 3.86969328e-01, 3.86969328e-01, 8.02592412e-02,
          3.86969328e-01, 3.86969328e-01, 8.77117589e-02, 5.76330908e-03,
          1.31618559e-01, 1.14216127e-01, 3.38699482e-02, 3.75797419e-04,
          3.51652145e-01, 6.44462526e-01, 6.44462526e-01, 2.29594186e-01,
          3.68791938e-01, 3.68791938e-01, 3.68791938e-01, 3.68791938e-01,
          3.68791938e-01, 3.68791938e-01, 1.68133155e-01, 3.15100253e-01,
          2.11302951e-01, 4.11502510e-01, 4.17152464e-01, 4.17152464e-01,
          2.40870565e-01, 4.17152464e-01, 3.96558344e-01, 1.08000092e-01,
          1.81272879e-01, 2.15568636e-02, 1.83001041e-01, 5.45296609e-01,
          1.44919768e-01, 1.35509912e-02, 2.00275034e-01, 5.45296609e-01,
          5.45296609e-01, 8.52036923e-02, 1.78239226e-01, 1.57556400e-01,
          4.41698521e-01, 4.41698521e-01, 4.41698521e-01, 8.27282593e-02,
          2.09376458e-02, 3.89001220e-01, 4.41698521e-01, 3.88561755e-01,
          3.88561755e-01, 2.76334524e-01, 3.63740236e-01, 3.88561755e-01,
          3.88561755e-01, 8.04740191e-02, 1.61472306e-01, 3.88561755e-01,
          1.67766944e-01, 3.18925053e-01, 2.71139294e-01, 3.14735947e-03,
          2.70685822e-01, 5.94486892e-01, 5.94486892e-01, 1.02744043e-01,
          4.70265234e-03 ]
      - [ 6.94172144e-01, 6.94172144e-01, 1.35877341e-01, 1.55394652e-03,
          1.96274687e-02, 4.44258153e-02, 9.76187643e-03, 5.93339675e-04,
          9.16558504e-02, 5.29948771e-01, 3.49764705e-01, 4.94119897e-02,
          4.77768108e-02, 3.93215567e-01, 3.84110391e-01, 1.46691725e-02,
          5.98505959e-02, 5.29948771e-01, 3.32053512e-01, 6.72973543e-02,
          1.23293273e-01, 8.14794824e-02, 1.85108349e-01, 5.50933294e-02,
          5.23082912e-01, 5.23082912e-01, 5.23082912e-01, 4.01942462e-01,
          4.01942462e-01, 4.01942462e-01, 4.01942462e-01, 2.53312178e-02,
          3.63557696e-01, 4.01942462e-01, 1.93750769e-01, 1.33569017e-01,
          3.28449607e-01, 3.89874309e-01, 3.08483064e-01, 1.23267815e-01,
          3.89874309e-01, 3.89874309e-01, 3.89874309e-01, 2.29868054e-01,
          3.42084467e-01, 4.33111489e-02, 4.66513842e-01, 4.61417377e-01,
          9.87670869e-02, 1.66759804e-01, 2.99831480e-01, 4.66513842e-01,
          4.66513842e-01, 1.37955304e-02, 2.95821521e-02, 1.27240354e-02,
          6.33601129e-01, 6.33601129e-01, 3.24517339e-01, 2.84637641e-02,
          1.28364906e-01, 1.81900233e-01, 1.84524462e-01, 4.14143175e-01,
          3.60133141e-01, 1.73815429e-01, 4.14143175e-01, 4.14143175e-01,
          2.92814702e-01, 1.51009023e-01, 2.03353688e-01, 4.14143175e-01,
          1.07577361e-01, 2.52075315e-01, 6.07917719e-02, 7.38944560e-02,
          4.02718008e-01, 6.08921707e-01, 6.08921707e-01, 6.74246103e-02,
          3.67436260e-02 ]
      - [ 6.82075977e-01, 6.82075977e-01, 2.78247390e-02, 2.23299628e-03,
          5.96757280e-03, 4.53547749e-04, 2.97402439e-04, 7.22446712e-04,
          2.48837113e-01, 6.80909991e-01, 2.02546626e-01, 1.77944247e-02,
          1.65778156e-02, 1.08194746e-01, 8.73121619e-02, 2.49393214e-03,
          7.05233291e-02, 6.80909991e-01, 5.69362104e-01, 8.77828803e-03,
          2.63080392e-02, 1.01577248e-02, 4.06186320e-02, 1.67076308e-02,
          1.37816370e-01, 5.69362104e-01, 5.69362104e-01, 4.50065941e-01,
          4.50065941e-01, 4.50065941e-01, 4.50065941e-01, 4.13684368e-01,
          4.45714630e-02, 8.83591101e-02, 4.72027585e-02, 4.59356532e-02,
          3.63858402e-01, 3.63858402e-01, 1.87962130e-01, 3.63858402e-01,
          3.63858402e-01, 3.63858402e-01, 3.38724464e-01, 2.27910548e-01,
          3.63858402e-01, 9.61062312e-02, 2.73310602e-01, 2.02276155e-01,
          5.26149087e-02, 2.20816657e-01, 4.52520937e-01, 4.52520937e-01,
          4.52520937e-01, 4.52520937e-01, 1.16552088e-04, 4.83537139e-03,
          1.28910556e-01, 6.97709501e-01, 6.97709501e-01, 2.17814185e-02,
          3.67468633e-02, 2.15792898e-02, 2.25031972e-02, 1.70301676e-01,
          1.20001018e-01, 2.84521505e-02, 6.11188889e-01, 6.11188889e-01,
          3.99661273e-01, 9.61368531e-02, 4.87079211e-02, 1.76740840e-01,
          3.67065631e-02, 6.62029162e-02, 1.86702404e-02, 5.36033288e-02,
          5.72978199e-01, 5.72978199e-01, 5.72978199e-01, 1.51461270e-02,
          1.36000747e-02 ]
      - [ 5.52951932e-01, 5.52951932e-01, 5.40645301e-01, 4.76753386e-03,
          9.64432955e-02, 2.04249755e-01, 1.61102042e-01, 1.06203379e-02,
          1.16449662e-01, 4.53806728e-01, 2.79527277e-01, 2.54659001e-02,
          3.65549296e-01, 4.53806728e-01, 2.38500580e-01, 7.64454752e-02,
          3.20169777e-01, 4.53806728e-01, 1.22047864e-01, 1.04881050e-02,
          8.61590356e-02, 3.13044310e-01, 1.66824341e-01, 3.76187544e-03,
          2.92651415e-01, 6.16413116e-01, 6.16413116e-01, 1.68129042e-01,
          4.28732842e-01, 4.28732842e-01, 4.28732842e-01, 9.56651792e-02,
          2.07628280e-01, 4.10276800e-01, 4.28732842e-01, 1.07769549e-01,
          3.44567746e-01, 3.44567746e-01, 2.48326093e-01, 3.44567746e-01,
          3.44567746e-01, 3.44567746e-01, 3.22184861e-01, 3.44567746e-01,
          3.44567746e-01, 2.86425471e-01, 4.11440432e-01, 4.11440432e-01,
          4.01355147e-01, 9.89312604e-02, 2.05917329e-01, 4.11440432e-01,
          4.11440432e-01, 1.53107926e-01, 1.19521752e-01, 4.84956652e-01,
          4.84956652e-01, 4.84956652e-01, 4.84956652e-01, 1.01872064e-01,
          1.33827720e-02, 1.47678271e-01, 8.81655440e-02, 4.17999148e-01,
          2.51381904e-01, 5.04687317e-02, 4.21482295e-01, 4.21482295e-01,
          4.21482295e-01, 5.58854751e-02, 2.15052709e-01, 4.15949196e-01,
          1.90428793e-01, 1.35245547e-01, 3.10283098e-02, 2.81116590e-02,
          5.50776899e-01, 5.59910715e-01, 5.59910715e-01, 7.67402723e-02,
          4.30914536e-02 ]
      - [ 6.42628610e-01, 6.42628610e-01, 1.66148379e-01, 2.22061621e-03,
          1.81687120e-02, 3.55923139e-02, 3.10637280e-02, 4.91479523e-02,
          3.67496073e-01, 4.60013539e-01, 3.31636786e-01, 6.18001223e-02,
          1.06819212e-01, 4.18534309e-01, 4.60013539e-01, 9.55785811e-02,
          2.25940615e-01, 4.60013539e-01, 2.83096910e-01, 2.97053047e-02,
          3.09351116e-01, 2.86885917e-01, 3.15932333e-01, 1.27737299e-01,
          1.36576578e-01, 5.48049212e-01, 5.48049212e-01, 8.50549117e-02,
          5.11770904e-01, 5.11770904e-01, 5.11770904e-01, 3.09649050e-01,
          9.86630470e-02, 2.00327381e-01, 2.34809920e-01, 3.22892591e-02,
          3.78606796e-01, 2.13850766e-01, 2.63628513e-01, 1.44660890e-01,
          3.78606796e-01, 3.78606796e-01, 3.78606796e-01, 3.78606796e-01,
          3.78606796e-01, 3.47828358e-01, 3.92640561e-01, 3.92640561e-01,
          2.07651839e-01, 1.44582361e-01, 3.92640561e-01, 3.92640561e-01,
          3.92640561e-01, 2.00590566e-01, 2.22896482e-03, 9.43161845e-02,
          5.65629900e-01, 5.65629900e-01, 5.65629900e-01, 1.55956358e-01,
          5.41916769e-03, 3.49403024e-02, 8.20212997e-03, 2.43308842e-01,
          3.74042206e-02, 2.09082544e-01, 4.74162310e-01, 4.74162310e-01,
          4.74162310e-01, 1.96399409e-02, 2.05317721e-01, 4.17036533e-01,
          2.89203852e-01, 1.49749950e-01, 7.12584555e-02, 6.70834705e-02,
          5.36665976e-01, 5.36665976e-01, 5.36665976e-01, 2.71850284e-02,
          1.19283430e-01 ]
      - [ 5.97884297e-01, 5.97884297e-01, 1.31319836e-01, 2.14102794e-03,
          1.00200891e-01, 4.90603536e-01, 9.14269686e-02, 0.,
          5.25226630e-02, 3.93364131e-01, 3.93364131e-01, 7.54479095e-02,
          2.40681425e-01, 3.93364131e-01, 3.93364131e-01, 6.35481700e-02,
          3.93364131e-01, 3.93364131e-01, 1.56688750e-01, 6.44007474e-02,
          3.34353566e-01, 4.54367787e-01, 1.46141678e-01, 9.80209410e-02,
          3.33056390e-01, 5.03061831e-01, 5.03061831e-01, 2.95538276e-01,
          3.89997810e-01, 3.89997810e-01, 3.89997810e-01, 4.53871675e-02,
          3.89997810e-01, 3.89997810e-01, 2.29088768e-01, 3.06149870e-01,
          3.67742032e-01, 3.67742032e-01, 3.67742032e-01, 3.24995369e-01,
          3.67742032e-01, 3.67742032e-01, 2.30711386e-01, 1.61465660e-01,
          3.67742032e-01, 2.87960500e-01, 4.00385588e-01, 4.00385588e-01,
          2.29236558e-01, 7.23781884e-02, 3.35611343e-01, 4.00385588e-01,
          4.00385588e-01, 3.18467438e-01, 1.96558669e-01, 1.28181830e-01,
          4.61009264e-01, 4.61009264e-01, 4.61009264e-01, 3.35538685e-01,
          1.64575860e-01, 1.56394213e-01, 3.72303873e-01, 2.29202315e-01,
          1.17698573e-01, 4.03953791e-01, 4.03953791e-01, 4.03953791e-01,
          4.03953791e-01, 2.50962287e-01, 2.25172132e-01, 4.03953791e-01,
          1.30396202e-01, 9.96219292e-02, 2.15637788e-01, 1.26541719e-01,
          5.43308973e-01, 5.43308973e-01, 5.43308973e-01, 5.05941026e-02,
          1.30462199e-01 ]
      - [ 6.13922060e-01, 4.81343865e-01, 8.88076946e-02, 0., 0.,
          1.75778661e-02, 2.15252675e-03, 1.33171417e-02, 6.13922060e-01,
          6.31658494e-01, 3.38246703e-01, 6.09922269e-03, 7.08089694e-02,
          2.18096033e-01, 1.34820685e-01, 8.19523539e-03, 1.02162287e-01,
          6.31658494e-01, 5.78061759e-01, 3.05535495e-02, 3.70462462e-02,
          6.18013479e-02, 5.62345050e-02, 1.22812772e-02, 1.11474782e-01,
          5.51408887e-01, 5.78061759e-01, 4.32538182e-01, 3.55887920e-01,
          3.35414290e-01, 4.32538182e-01, 4.32538182e-01, 2.62002014e-02,
          6.51994869e-02, 5.67973778e-02, 4.32538182e-01, 4.00446892e-01,
          3.09217602e-01, 3.39897275e-02, 4.00446892e-01, 4.00446892e-01,
          3.51994485e-01, 1.79143950e-01, 3.19069058e-01, 4.00446892e-01,
          2.73779452e-01, 2.16033489e-01, 2.25936726e-01, 2.36487389e-01,
          3.91787380e-01, 3.91787380e-01, 3.91787380e-01, 3.91787380e-01,
          3.91787380e-01, 7.13699916e-03, 2.84125237e-03, 1.02503479e-01,
          7.00482428e-01, 7.00482428e-01, 1.86465960e-02, 2.29796283e-02,
          1.42090144e-02, 3.53473006e-03, 1.03535295e-01, 3.42486240e-02,
          4.29876335e-03, 6.62893355e-01, 6.62893355e-01, 2.65569240e-01,
          3.49645317e-02, 5.45102432e-02, 1.67017743e-01, 6.91623166e-02,
          4.19986211e-02, 3.71395908e-02, 2.56027669e-01, 6.34978056e-01,
          6.34978056e-01, 3.30958396e-01, 2.26915814e-02, 6.11625500e-02 ]
      - [ 5.42360723e-01, 5.42360723e-01, 1.47275820e-01, 0.,
          1.12402335e-01, 5.42360723e-01, 2.63518065e-01, 4.35437803e-04,
          9.13883895e-02, 4.27299231e-01, 1.55057311e-01, 1.77713800e-02,
          4.27299231e-01, 4.27299231e-01, 4.27299231e-01, 4.11489606e-02,
          2.38236338e-01, 4.27299231e-01, 6.71577826e-02, 2.05481629e-05,
          1.38988540e-01, 5.62269926e-01, 1.43087685e-01, 0.,
          4.05083261e-02, 5.62269926e-01, 5.62269926e-01, 2.47475028e-01,
          4.39006895e-01, 4.39006895e-01, 1.18646763e-01, 3.70954797e-02,
          4.39006895e-01, 4.39006895e-01, 3.62502247e-01, 1.28847197e-01,
          4.01603758e-01, 1.81235805e-01, 1.29574493e-01, 4.01603758e-01,
          4.01603758e-01, 4.01603758e-01, 2.71358341e-01, 2.57466376e-01,
          4.01603758e-01, 3.60167831e-01, 3.60167831e-01, 3.60167831e-01,
          3.60167831e-01, 1.45075768e-01, 2.71340132e-01, 3.60167831e-01,
          3.60167831e-01, 3.51288915e-01, 5.67957275e-02, 1.38930395e-01,
          4.30440426e-01, 4.30440426e-01, 4.30440426e-01, 2.11274281e-01,
          4.30440426e-01, 4.30440426e-01, 4.62725274e-02, 3.40655357e-01,
          7.74606466e-02, 9.98642221e-02, 4.97040600e-01, 4.97040600e-01,
          6.19504377e-02, 1.73914731e-01, 2.96284497e-01, 4.97040600e-01,
          5.04523575e-01, 2.70887226e-01, 8.87999460e-02, 1.57631740e-01,
          5.04523575e-01, 5.04523575e-01, 3.00370574e-01, 6.73519745e-02,
          1.74520046e-01 ]
      - [ 5.09530723e-01, 5.09530723e-01, 4.43428278e-01, 6.53212145e-02,
          3.10407672e-02, 9.28745866e-02, 7.38045648e-02, 1.07127717e-02,
          5.09530723e-01, 5.39358556e-01, 7.76709989e-03, 2.33057551e-02,
          8.45735818e-02, 5.39358556e-01, 3.30871761e-01, 5.83681986e-02,
          3.53788473e-02, 5.39358556e-01, 5.02095580e-01, 1.02962263e-01,
          1.39613435e-01, 2.33599812e-01, 3.28928292e-01, 4.65226546e-02,
          8.52107108e-02, 5.19820869e-01, 5.19820869e-01, 3.32540095e-01,
          3.26469153e-01, 4.72629160e-01, 4.72629160e-01, 4.24875766e-02,
          2.37648159e-01, 4.72629160e-01, 1.79112360e-01, 1.32726297e-01,
          4.00982529e-01, 4.00982529e-01, 1.26070395e-01, 1.46860197e-01,
          4.00982529e-01, 4.00982529e-01, 4.00982529e-01, 1.90408111e-01,
          3.44009131e-01, 3.63733292e-01, 3.63733292e-01, 3.63733292e-01,
          2.07210034e-01, 2.92948455e-01, 3.63733292e-01, 3.63733292e-01,
          3.63733292e-01, 2.71661073e-01, 5.59994392e-02, 4.23033126e-02,
          5.40618181e-01, 5.40618181e-01, 5.40618181e-01, 3.89318652e-02,
          2.09638566e-01, 1.79408327e-01, 1.87670410e-01, 4.69187737e-01,
          1.62380770e-01, 2.39536166e-02, 4.69187737e-01, 4.69187737e-01,
          4.69187737e-01, 1.06275484e-01, 1.07679963e-01, 2.54822344e-01,
          2.54784614e-01, 2.29270175e-01, 6.71064155e-03, 2.75863358e-03,
          6.32189751e-01, 6.49060071e-01, 2.34567493e-01, 2.69677071e-03,
          3.89367738e-03 ]
      - [ 4.42240328e-01, 3.14088970e-01, 3.95078480e-01, 1.12218317e-02,
          3.84706080e-01, 4.42240328e-01, 7.71404952e-02, 6.21653488e-03,
          4.42240328e-01, 4.96055126e-01, 5.31733856e-02, 1.73814949e-02,
          1.83013454e-01, 4.96055126e-01, 4.62332696e-01, 6.44497434e-03,
          8.01059455e-02, 4.96055126e-01, 4.26667422e-01, 8.66259914e-03,
          2.52388656e-01, 4.26667422e-01, 4.06372398e-01, 2.43315455e-02,
          1.95069298e-01, 4.26667422e-01, 4.26667422e-01, 2.09209234e-01,
          1.40742928e-01, 3.79231066e-01, 3.75496835e-01, 3.79231066e-01,
          3.79231066e-01, 3.79231066e-01, 3.79231066e-01, 2.69361049e-01,
          4.32744414e-01, 4.32744414e-01, 2.97902256e-01, 2.85070151e-01,
          4.32744414e-01, 4.32744414e-01, 9.36996639e-02, 2.26725191e-01,
          1.28108203e-01, 1.17420189e-01, 4.02490109e-01, 4.02490109e-01,
          3.96773875e-01, 1.43351272e-01, 3.81291687e-01, 4.02490109e-01,
          4.02490109e-01, 1.04096331e-01, 9.10557061e-02, 1.84637699e-02,
          4.81406987e-01, 4.81406987e-01, 2.38135323e-01, 1.48959819e-03,
          5.32760285e-02, 4.81406987e-01, 4.81406987e-01, 3.87463897e-01,
          3.87463897e-01, 3.80844884e-02, 3.78413856e-01, 3.87463897e-01,
          3.87463897e-01, 3.61060798e-02, 3.15494478e-01, 3.87463897e-01,
          4.65069562e-01, 4.96403843e-01, 1.34160101e-01, 0.,
          1.43073425e-01, 4.96403843e-01, 4.96403843e-01, 2.15689484e-02,
          2.38328483e-02 ]
      - [ 4.71481562e-01, 4.71481562e-01, 4.71481562e-01, 3.85886878e-02,
          1.35451213e-01, 4.71481562e-01, 2.90251166e-01, 7.63203669e-03,
          4.43978533e-02, 3.54583353e-01, 3.54583353e-01, 1.60403535e-01,
          3.54583353e-01, 3.54583353e-01, 3.54583353e-01, 3.10953826e-01,
          3.45918685e-01, 3.54583353e-01, 2.47663073e-02, 2.03689327e-03,
          3.30267698e-01, 5.15837371e-01, 9.94617939e-02, 6.35277061e-03,
          2.77410448e-01, 5.15837371e-01, 5.15837371e-01, 2.64251709e-01,
          4.00915921e-01, 4.00915921e-01, 2.33243108e-01, 2.77275413e-01,
          4.00915921e-01, 4.00915921e-01, 2.98831791e-01, 2.50294358e-01,
          2.07640275e-01, 3.71449798e-01, 3.71449798e-01, 3.71449798e-01,
          2.81164080e-01, 3.71449798e-01, 3.71449798e-01, 3.71449798e-01,
          2.15107858e-01, 1.17790930e-01, 4.18852895e-01, 4.18852895e-01,
          4.18852895e-01, 1.36435144e-02, 2.82180727e-01, 4.18852895e-01,
          4.18852895e-01, 1.57924801e-01, 7.75945336e-02, 4.25124139e-01,
          4.25124139e-01, 4.25124139e-01, 1.80759549e-01, 9.66731384e-02,
          2.09904939e-01, 4.25124139e-01, 4.25124139e-01, 3.83002728e-01,
          3.83002728e-01, 8.52662921e-02, 3.83002728e-01, 3.83002728e-01,
          3.83002728e-01, 1.74624369e-01, 2.79755384e-01, 3.83002728e-01,
          4.92314011e-01, 4.92314011e-01, 8.04648474e-02, 9.42200888e-04,
          1.10682264e-01, 4.92314011e-01, 4.92314011e-01, 7.99669027e-02,
          2.16745790e-02 ]
      - [ 5.72749078e-01, 5.72749078e-01, 8.60819370e-02, 0.,
          1.54239051e-02, 5.18568933e-01, 2.39850461e-01, 3.79057527e-02,
          5.16804345e-02, 3.98297906e-01, 3.98297906e-01, 1.36499196e-01,
          3.07230145e-01, 3.98297906e-01, 3.98297906e-01, 2.28380904e-01,
          1.93996355e-01, 3.98297906e-01, 7.28957132e-02, 1.49748370e-01,
          4.41389948e-01, 4.41389948e-01, 2.40286887e-01, 6.02358915e-02,
          3.56631547e-01, 4.41389948e-01, 4.41389948e-01, 1.67065278e-01,
          4.24883425e-01, 4.24883425e-01, 3.04443121e-01, 5.90313338e-02,
          4.24883425e-01, 4.24883425e-01, 3.77181917e-01, 8.54665190e-02,
          7.36701414e-02, 3.82524550e-01, 3.82524550e-01, 3.17397803e-01,
          1.09816879e-01, 3.82524550e-01, 3.82524550e-01, 3.82524550e-01,
          3.82524550e-01, 1.78038180e-02, 4.45817202e-01, 4.45817202e-01,
          6.98401853e-02, 2.29124296e-02, 4.33322996e-01, 4.45817202e-01,
          4.45817202e-01, 8.39430615e-02, 0., 9.91527066e-02,
          4.41300720e-01, 4.41300720e-01, 4.41300720e-01, 2.65951812e-01,
          4.41300720e-01, 3.67815644e-01, 2.75040269e-02, 2.08416134e-01,
          3.28728586e-01, 3.89610529e-01, 3.89610529e-01, 2.85212398e-01,
          3.00536722e-01, 2.56425500e-01, 3.89610529e-01, 3.89610529e-01,
          1.76304087e-01, 5.32525659e-01, 7.75365010e-02, 1.46465093e-01,
          2.17864677e-01, 5.32525659e-01, 5.32525659e-01, 8.89464095e-02,
          1.73227131e-01 ]
      - [ 5.55608869e-01, 5.55608869e-01, 2.61190891e-01, 1.62327953e-03,
          2.39983830e-03, 1.50261854e-03, 1.03182523e-02, 3.22213583e-03,
          5.55608869e-01, 5.08174956e-01, 5.08174956e-01, 3.91652957e-02,
          1.24454789e-01, 2.24237278e-01, 3.78827512e-01, 6.72944784e-02,
          6.96798861e-02, 5.08174956e-01, 4.12287980e-01, 1.84873305e-02,
          1.09653376e-01, 1.72810569e-01, 1.24549665e-01, 6.53849617e-02,
          5.04303157e-01, 5.04303157e-01, 5.04303157e-01, 4.66683716e-01,
          4.66683716e-01, 4.66683716e-01, 4.66683716e-01, 3.13334316e-02,
          4.14383709e-02, 2.63755322e-01, 7.84481689e-02, 2.13878125e-01,
          3.95382643e-01, 3.95382643e-01, 2.26818442e-01, 2.80223370e-01,
          1.93368286e-01, 3.95382643e-01, 3.95382643e-01, 3.19281906e-01,
          3.18490773e-01, 2.85815835e-01, 4.47181761e-01, 4.47181761e-01,
          2.58399665e-01, 8.23275372e-02, 3.17754000e-01, 4.47181761e-01,
          3.62464607e-01, 8.96188095e-02, 1.09843547e-02, 8.06332752e-03,
          5.70840955e-01, 6.92086577e-01, 4.30238366e-01, 5.99395530e-03,
          4.34100889e-02, 3.10613606e-02, 8.48804787e-03, 3.70843709e-01,
          1.47300169e-01, 7.19355345e-02, 4.33737189e-01, 4.33737189e-01,
          4.33737189e-01, 3.69044334e-01, 1.66466326e-01, 3.20907652e-01,
          1.59999609e-01, 1.24821447e-01, 5.24679646e-02, 5.17992936e-02,
          5.60846388e-01, 5.60846388e-01, 5.60846388e-01, 5.27018569e-02,
          3.68729159e-02 ]
      - [ 6.66537881e-01, 6.66537881e-01, 1.69363059e-02, 0.,
          1.06138177e-01, 1.85343012e-01, 2.16117218e-01, 3.83122489e-02,
          1.03546180e-01, 4.53983933e-01, 3.76393199e-01, 8.17674864e-03,
          1.37129799e-01, 4.53983933e-01, 4.53983933e-01, 8.96665826e-02,
          4.97621335e-02, 4.53983933e-01, 2.57434696e-01, 0.,
          1.43046707e-01, 4.97387022e-01, 3.98818761e-01, 4.41027209e-02,
          7.15151429e-02, 4.97387022e-01, 4.97387022e-01, 3.70912969e-01,
          3.70912969e-01, 3.70912969e-01, 3.70912969e-01, 3.70912969e-01,
          2.21732318e-01, 3.53554100e-01, 3.41645330e-01, 1.32382110e-01,
          2.77235329e-01, 1.23817123e-01, 2.41828244e-02, 3.96397293e-01,
          3.96397293e-01, 3.96397293e-01, 3.42944711e-01, 3.96397293e-01,
          3.96397293e-01, 2.98856437e-01, 3.46462548e-01, 3.46462548e-01,
          3.46462548e-01, 2.58784384e-01, 3.46462548e-01, 3.46462548e-01,
          3.46462548e-01, 3.46462548e-01, 4.58948867e-04, 7.27646947e-02,
          3.50525469e-01, 5.65309227e-01, 5.65309227e-01, 4.66326386e-01,
          1.02320556e-02, 8.53870958e-02, 4.67662327e-02, 1.39765784e-01,
          2.00690385e-02, 7.83675699e-04, 5.31822383e-01, 5.31822383e-01,
          1.85115054e-01, 5.25561441e-03, 3.03234011e-01, 5.31822383e-01,
          4.11975890e-01, 3.80871326e-01, 5.99096641e-02, 1.54767111e-01,
          4.86599416e-01, 4.86599416e-01, 2.53255904e-01, 3.92001122e-02,
          3.37012768e-01 ]
      - [ 6.96623266e-01, 6.96623266e-01, 2.12598089e-02, 0.,
          1.09947203e-02, 9.38283131e-02, 1.38691999e-02, 0.,
          1.13617390e-01, 5.03710389e-01, 3.35368842e-01, 1.08166207e-02,
          3.83384004e-02, 3.43969703e-01, 5.03710389e-01, 8.20760522e-03,
          3.68121006e-02, 5.03710389e-01, 4.61072206e-01, 1.79283023e-02,
          2.12683678e-01, 3.10716391e-01, 4.00865555e-01, 1.49372369e-01,
          1.80349708e-01, 4.61072206e-01, 4.61072206e-01, 3.76461387e-01,
          3.76461387e-01, 3.76461387e-01, 3.76461387e-01, 3.76461387e-01,
          2.64010042e-01, 3.76461387e-01, 2.72686630e-01, 4.29011360e-02,
          3.93236816e-01, 2.64469326e-01, 1.45474359e-01, 1.41083568e-01,
          4.25047398e-01, 4.25047398e-01, 4.25047398e-01, 4.25047398e-01,
          8.62920508e-02, 5.08166291e-02, 4.05152798e-01, 4.05152798e-01,
          3.00259501e-01, 2.64968395e-01, 4.05152798e-01, 4.05152798e-01,
          4.05152798e-01, 1.10735327e-01, 0., 7.66449142e-03,
          5.30966163e-01, 5.30966163e-01, 4.44958627e-01, 1.31489160e-02,
          2.07271695e-01, 4.33027595e-01, 4.64012548e-02, 3.67638916e-01,
          3.41079593e-01, 1.89755812e-01, 3.67638916e-01, 3.67638916e-01,
          3.22180361e-01, 2.53756911e-01, 3.67638916e-01, 3.67638916e-01,
          3.57113987e-01, 5.13200998e-01, 1.70511663e-01, 2.04642210e-02,
          2.03529641e-01, 5.13200998e-01, 5.13200998e-01, 3.84193398e-02,
          6.94626868e-02 ]
      - [ 4.52448994e-01, 4.52448994e-01, 2.22010866e-01, 0.,
          2.21777141e-01, 3.77237827e-01, 3.66484165e-01, 7.91041404e-02,
          4.52448994e-01, 3.51948768e-01, 3.51948768e-01, 3.51948768e-01,
          3.51948768e-01, 3.51948768e-01, 3.51948768e-01, 3.51948768e-01,
          7.44316727e-02, 3.51948768e-01, 3.36972475e-01, 1.62550330e-01,
          4.33882326e-01, 4.33882326e-01, 1.00167692e-01, 2.63116863e-02,
          3.03235054e-01, 4.33882326e-01, 4.33882326e-01, 1.57763407e-01,
          3.98482412e-01, 3.98482412e-01, 3.98482412e-01, 1.65887773e-01,
          2.59790063e-01, 3.98482412e-01, 3.98482412e-01, 2.86668748e-01,
          3.75509232e-01, 3.75509232e-01, 2.35448614e-01, 1.79708719e-01,
          3.75509232e-01, 3.75509232e-01, 2.49948010e-01, 3.75509232e-01,
          3.75509232e-01, 2.55664378e-01, 4.17504698e-01, 4.17504698e-01,
          2.21009806e-01, 8.32107663e-02, 4.17504698e-01, 4.17504698e-01,
          4.17504698e-01, 5.60781322e-02, 6.24348000e-02, 8.21889099e-03,
          4.04915929e-01, 5.50239742e-01, 5.50239742e-01, 1.09824669e-02,
          2.60825232e-02, 3.68957490e-01, 2.90042311e-01, 4.41667318e-01,
          9.25724655e-02, 2.88694035e-02, 4.41667318e-01, 4.41667318e-01,
          4.41667318e-01, 3.09400470e-03, 1.04045041e-01, 4.41667318e-01,
          3.11115652e-01, 3.74734789e-01, 1.68589037e-02, 8.79334111e-04,
          5.00764668e-01, 5.00764668e-01, 5.00764668e-01, 2.30281409e-02,
          6.83265254e-02 ]
      - [ 5.06600201e-01, 5.06600201e-01, 6.65548146e-02, 3.82254133e-03,
          2.28386536e-01, 5.06600201e-01, 3.95223141e-01, 5.71416095e-02,
          9.45418701e-02, 4.33071584e-01, 1.46565899e-01, 1.97125122e-01,
          4.33071584e-01, 4.33071584e-01, 4.26871657e-01, 4.68764603e-02,
          2.67067477e-02, 4.33071584e-01, 3.61271083e-01, 3.37911621e-02,
          3.74964029e-01, 4.20123577e-01, 9.66636613e-02, 4.48473636e-03,
          4.23338622e-01, 4.23338622e-01, 4.23338622e-01, 1.95375383e-01,
          3.75874072e-01, 3.75874072e-01, 3.75874072e-01, 2.48512864e-01,
          3.75874072e-01, 3.75874072e-01, 3.75874072e-01, 2.20514834e-01,
          5.55272773e-02, 3.85087818e-01, 3.85087818e-01, 3.85087818e-01,
          3.85087818e-01, 3.40335667e-01, 1.86610028e-01, 3.85087818e-01,
          3.17734003e-01, 2.68918611e-02, 4.71435398e-01, 4.71435398e-01,
          1.78425670e-01, 1.99311022e-02, 2.70599306e-01, 4.71435398e-01,
          4.71435398e-01, 1.02767861e-02, 0., 7.27080414e-03,
          5.35932720e-01, 5.35932720e-01, 2.33137444e-01, 8.54449533e-03,
          3.55346762e-02, 5.35932720e-01, 2.77910948e-01, 2.82729715e-01,
          3.72101516e-01, 2.87709802e-01, 3.72101516e-01, 3.72101516e-01,
          3.72101516e-01, 5.30310199e-02, 3.72101516e-01, 3.72101516e-01,
          1.29486665e-01, 5.45980930e-01, 2.36078411e-01, 7.15222023e-03,
          1.50704756e-01, 5.45980930e-01, 5.45980930e-01, 5.86321317e-02,
          3.95156480e-02 ]
      - [ 6.33664906e-01, 6.33664906e-01, 9.61783975e-02, 1.25167659e-03,
          1.53067142e-01, 3.56965959e-01, 6.90438300e-02, 0.,
          1.60430133e-01, 4.82549995e-01, 1.99362710e-01, 7.07671866e-02,
          1.25070468e-01, 4.82549995e-01, 4.82549995e-01, 9.68803652e-03,
          5.72032668e-02, 4.82549995e-01, 1.73676565e-01, 7.14169219e-02,
          3.17220032e-01, 2.33394951e-01, 3.55418444e-01, 4.16730307e-02,
          2.61358470e-01, 5.51254094e-01, 5.51254094e-01, 2.94210792e-01,
          3.59122217e-01, 3.59122217e-01, 3.10594589e-01, 3.59122217e-01,
          3.59122217e-01, 3.59122217e-01, 3.59122217e-01, 1.98923409e-01,
          3.63866091e-01, 3.63866091e-01, 3.50246638e-01, 2.16968745e-01,
          3.63866091e-01, 3.63866091e-01, 1.79514304e-01, 3.63866091e-01,
          3.63866091e-01, 1.15673013e-01, 4.29702282e-01, 4.29702282e-01,
          1.31444409e-01, 1.76515356e-01, 4.29702282e-01, 4.29702282e-01,
          4.29702282e-01, 1.03304341e-01, 2.66452022e-02, 7.42998049e-02,
          4.59668696e-01, 4.59668696e-01, 4.59668696e-01, 3.78129244e-01,
          3.72667015e-01, 1.89313412e-01, 1.93882316e-01, 4.11960989e-01,
          2.48519734e-01, 1.92084014e-01, 4.11960989e-01, 4.11960989e-01,
          4.11960989e-01, 6.09505922e-02, 2.12018669e-01, 4.11960989e-01,
          2.18604326e-01, 2.96191931e-01, 7.27647915e-02, 3.55828516e-02,
          5.32218933e-01, 5.32218933e-01, 5.32218933e-01, 3.95779982e-02,
          3.56246158e-02 ]
      - [ 6.09033287e-01, 6.09033287e-01, 1.02683626e-01, 0.,
          1.78290069e-01, 4.14824635e-01, 3.52964289e-02, 0.,
          1.90838367e-01, 4.92575794e-01, 1.08858541e-01, 3.68463360e-02,
          7.76910558e-02, 4.92575794e-01, 4.92575794e-01, 2.13692780e-03,
          7.28588477e-02, 4.92575794e-01, 3.77578825e-01, 2.47155994e-01,
          2.84978777e-01, 2.19389811e-01, 2.04345107e-01, 8.79804268e-02,
          6.17259517e-02, 5.51447630e-01, 5.51447630e-01, 3.53930593e-01,
          3.53930593e-01, 3.53930593e-01, 3.53930593e-01, 2.52213120e-01,
          3.53930593e-01, 3.53930593e-01, 3.53930593e-01, 2.36609906e-01,
          4.37352866e-01, 4.37352866e-01, 8.97266567e-02, 1.51109606e-01,
          4.37352866e-01, 4.37352866e-01, 6.69801757e-02, 7.17133582e-02,
          4.35898006e-01, 3.48442584e-01, 3.71400565e-01, 3.71400565e-01,
          1.27346635e-01, 1.79505229e-01, 3.71400565e-01, 3.71400565e-01,
          3.71400565e-01, 3.69792014e-01, 2.69003838e-01, 2.44006291e-02,
          2.80214310e-01, 5.47428787e-01, 5.47428787e-01, 4.72257473e-02,
          1.47272855e-01, 3.16336453e-01, 3.45991254e-01, 4.80332047e-01,
          1.74182847e-01, 3.55953729e-04, 4.67876583e-01, 4.80332047e-01,
          4.80332047e-01, 8.61478411e-03, 2.46584881e-02, 2.30467737e-01,
          2.48286992e-01, 2.23908171e-01, 7.88461044e-03, 0.,
          6.29626155e-01, 6.29626155e-01, 2.98311830e-01, 4.44245571e-03,
          1.57808140e-03 ]
      - [ 6.45902336e-01, 6.45902336e-01, 1.42856697e-02, 0.,
          8.18597674e-02, 1.22158803e-01, 4.72187698e-02, 2.37095356e-02,
          3.66813451e-01, 5.57400167e-01, 7.82222524e-02, 5.95699809e-03,
          1.32498384e-01, 5.57400167e-01, 1.94098741e-01, 1.52487420e-02,
          2.70579662e-02, 5.57400167e-01, 5.52947581e-01, 1.89265274e-02,
          4.74967174e-02, 1.78976715e-01, 1.90042615e-01, 4.64602886e-03,
          8.02531391e-02, 5.52947581e-01, 5.52947581e-01, 3.60205024e-01,
          3.60205024e-01, 3.60205024e-01, 3.60205024e-01, 3.60205024e-01,
          3.60205024e-01, 3.60205024e-01, 2.76057005e-01, 1.09361805e-01,
          3.82754236e-01, 2.72623748e-01, 1.42225698e-01, 3.82754236e-01,
          3.82754236e-01, 3.82754236e-01, 1.50397554e-01, 3.82754236e-01,
          3.82754236e-01, 2.41932675e-01, 3.47472042e-01, 3.47472042e-01,
          3.41645628e-01, 3.11214179e-01, 3.47472042e-01, 3.47472042e-01,
          3.47472042e-01, 3.47472042e-01, 4.45545744e-03, 1.18094057e-01,
          3.91616285e-01, 4.93699789e-01, 4.93699789e-01, 4.93699789e-01,
          2.85834610e-01, 1.00592494e-01, 6.85635656e-02, 2.88472474e-01,
          1.28896609e-01, 5.34072630e-02, 4.63425457e-01, 4.63425457e-01,
          4.30265188e-01, 1.79077908e-02, 2.50898391e-01, 4.63425457e-01,
          2.44214937e-01, 3.05107117e-01, 7.29054883e-02, 7.85489753e-02,
          5.23024499e-01, 5.23024499e-01, 5.23024499e-01, 2.67651808e-02,
          9.58112180e-02 ]
      - [ 5.50872743e-01, 5.50872743e-01, 2.02939361e-02, 0.,
          2.19958901e-01, 5.50872743e-01, 1.70760632e-01, 1.97077505e-02,
          7.59964809e-02, 4.31516379e-01, 3.61448377e-01, 5.70408516e-02,
          3.38844806e-01, 4.31516379e-01, 4.31516379e-01, 2.03069877e-02,
          4.16802391e-02, 4.31516379e-01, 2.05366254e-01, 8.77995044e-03,
          3.11132878e-01, 4.39287394e-01, 2.77804375e-01, 8.65275785e-02,
          4.39287394e-01, 4.39287394e-01, 4.39287394e-01, 3.64325285e-01,
          3.64325285e-01, 3.64325285e-01, 2.56571263e-01, 3.64325285e-01,
          3.64325285e-01, 3.64325285e-01, 3.64325285e-01, 3.74271944e-02,
          1.93920001e-01, 3.16479921e-01, 3.79977286e-01, 3.11785430e-01,
          3.79977286e-01, 3.79977286e-01, 3.79977286e-01, 3.79977286e-01,
          1.98281586e-01, 9.18754190e-02, 4.43093151e-01, 4.43093151e-01,
          4.43093151e-01, 3.68659236e-02, 6.22080453e-02, 4.43093151e-01,
          4.43093151e-01, 1.56937856e-02, 3.94988693e-02, 1.74864247e-01,
          4.90414381e-01, 4.90414381e-01, 2.28611067e-01, 6.63807392e-02,
          1.63008928e-01, 4.90414381e-01, 3.97748768e-01, 4.12846416e-01,
          2.55961329e-01, 6.86298385e-02, 4.12846416e-01, 4.12846416e-01,
          2.63659269e-01, 6.26296327e-02, 4.12846416e-01, 4.12846416e-01,
          4.72636789e-01, 4.72636789e-01, 1.12129308e-01, 3.58605757e-03,
          2.56433725e-01, 4.72636789e-01, 4.72636789e-01, 1.00293696e-01,
          1.15473576e-01 ]
      - [ 4.98845428e-01, 4.98845428e-01, 4.83031422e-01, 0., 0.,
          4.33668226e-01, 2.22450897e-01, 1.62214875e-01, 1.17780697e-02,
          3.48667234e-01, 3.48667234e-01, 3.48667234e-01, 3.48667234e-01,
          1.54807895e-01, 3.48667234e-01, 3.48667234e-01, 3.48667234e-01,
          3.48667234e-01, 5.34800179e-02, 3.82655323e-03, 3.62912446e-01,
          3.61512691e-01, 3.47737074e-02, 0., 5.41453362e-01,
          5.41453362e-01, 3.76521498e-01, 7.81352073e-02, 4.54950720e-01,
          4.54950720e-01, 4.22474533e-01, 1.28683746e-02, 1.95560440e-01,
          4.54950720e-01, 3.89159948e-01, 8.39430746e-03, 6.15308210e-02,
          4.06140387e-01, 4.06140387e-01, 4.06140387e-01, 1.85107291e-02,
          4.06140387e-01, 4.06140387e-01, 4.06140387e-01, 4.59763519e-02,
          5.86995408e-02, 2.42793515e-01, 5.19029200e-01, 3.49870533e-01,
          1.88468152e-03, 4.26594019e-02, 5.19029200e-01, 5.19029200e-01,
          3.92762991e-03, 0., 2.28245482e-01, 5.34352779e-01,
          5.34352779e-01, 1.45295918e-01, 5.45759350e-02, 2.81736344e-01,
          5.12602031e-01, 7.26378411e-02, 2.46144176e-01, 3.43157828e-01,
          3.34190637e-01, 3.43157828e-01, 3.43157828e-01, 3.43157828e-01,
          3.43157828e-01, 3.43157828e-01, 3.43157828e-01, 1.89284518e-01,
          5.33806384e-01, 1.63298413e-01, 1.58810373e-02, 1.40475079e-01,
          5.33806384e-01, 5.33806384e-01, 2.34698132e-01, 4.75154668e-02 ]
      - [ 5.59728324e-01, 5.59728324e-01, 5.59728324e-01, 2.80883648e-02,
          9.02520493e-02, 1.99275300e-01, 2.00188495e-02, 6.85883407e-03,
          7.36891404e-02, 4.15567368e-01, 4.15567368e-01, 1.86350048e-01,
          9.56512243e-02, 2.96767145e-01, 4.15567368e-01, 2.05260571e-02,
          4.15567368e-01, 4.15567368e-01, 1.34324968e-01, 5.12443557e-02,
          2.09957451e-01, 1.10977732e-01, 1.14354312e-01, 4.98359203e-02,
          5.23923755e-01, 5.60037255e-01, 5.60037255e-01, 1.93692371e-01,
          5.29628158e-01, 5.29628158e-01, 1.32029399e-01, 7.24175051e-02,
          5.29628158e-01, 2.35666156e-01, 1.69853017e-01, 9.27981734e-02,
          3.84218633e-01, 4.09986794e-01, 4.09986794e-01, 1.46549642e-01,
          2.87665397e-01, 4.09986794e-01, 3.73551935e-01, 2.65494555e-01,
          1.72500357e-01, 2.60979421e-02, 4.56128448e-01, 3.56800586e-01,
          6.21343516e-02, 4.61931862e-02, 4.56128448e-01, 4.56128448e-01,
          4.56128448e-01, 1.71023518e-01, 1.18488379e-01, 2.36454293e-01,
          5.14347017e-01, 5.14347017e-01, 5.14347017e-01, 3.16043310e-02,
          7.61653408e-02, 2.24111423e-01, 2.72449076e-01, 3.77424508e-01,
          3.77424508e-01, 2.42422715e-01, 3.77424508e-01, 3.77424508e-01,
          3.77424508e-01, 3.77424508e-01, 1.48447484e-01, 2.46431321e-01,
          9.03736353e-02, 3.11911494e-01, 3.54700573e-02, 5.78176184e-03,
          2.22039700e-01, 6.43346965e-01, 6.43346965e-01, 9.86763984e-02,
          0. ]
      - [ 4.66062039e-01, 4.66062039e-01, 4.66062039e-01, 7.94610083e-02,
          3.03330943e-02, 9.42519754e-02, 4.66062039e-01, 2.25201041e-01,
          2.44246930e-01, 3.48349720e-01, 3.48349720e-01, 3.48349720e-01,
          3.48349720e-01, 3.48349720e-01, 1.60434470e-01, 3.48349720e-01,
          3.48349720e-01, 3.48349720e-01, 5.48676923e-02, 5.68201169e-02,
          4.35341120e-01, 4.35341120e-01, 2.01851159e-01, 3.25414650e-02,
          4.35341120e-01, 4.35341120e-01, 4.35341120e-01, 1.44487530e-01,
          4.15446341e-01, 4.15446341e-01, 4.15446341e-01, 3.88790555e-02,
          3.25782657e-01, 4.15446341e-01, 4.15446341e-01, 6.59465566e-02,
          2.50855416e-01, 3.81181926e-01, 3.81181926e-01, 2.27708086e-01,
          9.80524197e-02, 3.81181926e-01, 3.81181926e-01, 3.81181926e-01,
          3.81181926e-01, 1.57980695e-01, 4.48521763e-01, 4.48521763e-01,
          1.40835673e-01, 2.98403259e-02, 3.76250863e-01, 4.48521763e-01,
          4.48521763e-01, 5.98748177e-02, 1.08072674e-02, 1.20065726e-01,
          5.46073079e-01, 5.46073079e-01, 1.41277269e-01, 3.20323072e-02,
          7.04012811e-02, 5.46073079e-01, 2.43895724e-01, 4.03381169e-01,
          1.60956308e-01, 1.46945328e-01, 4.03381169e-01, 4.03381169e-01,
          3.21882576e-01, 1.76861852e-01, 4.03381169e-01, 4.03381169e-01,
          4.75994557e-01, 4.66970474e-01, 7.55795091e-02, 9.60523412e-02,
          2.03407943e-01, 4.75994557e-01, 4.75994557e-01, 9.59100872e-02,
          1.78773701e-01 ]
      - [ 5.61561763e-01, 5.61561763e-01, 2.32738387e-02, 0.,
          1.80468276e-01, 5.61561763e-01, 1.12392358e-01, 0.,
          5.09420782e-02, 3.92953545e-01, 3.84014726e-01, 3.69219154e-01,
          2.21877098e-01, 3.92953545e-01, 3.92953545e-01, 5.38944229e-02,
          2.06156164e-01, 3.92953545e-01, 8.49618912e-02, 9.88233462e-02,
          4.71751839e-01, 2.32677519e-01, 1.78083852e-01, 4.74501327e-02,
          4.71751839e-01, 4.71751839e-01, 4.71751839e-01, 2.61071980e-01,
          3.97115827e-01, 2.77477980e-01, 2.34391809e-01, 8.62318277e-02,
          3.97115827e-01, 3.97115827e-01, 3.97115827e-01, 3.97115827e-01,
          3.63157928e-01, 4.79048878e-01, 4.79048878e-01, 8.04934874e-02,
          3.02609324e-01, 4.79048878e-01, 7.33712167e-02, 5.72146103e-02,
          2.61073947e-01, 4.02557813e-02, 4.72862393e-01, 4.72862393e-01,
          4.86551151e-02, 1.32476585e-02, 3.10340434e-01, 4.72862393e-01,
          4.72862393e-01, 2.01765634e-02, 1.33885056e-01, 1.80407465e-02,
          2.25834891e-01, 4.89213377e-01, 4.89213377e-01, 1.84804555e-02,
          8.68788436e-02, 4.47194666e-01, 4.89213377e-01, 4.02236938e-01,
          4.02236938e-01, 1.20532878e-01, 4.02236938e-01, 4.02236938e-01,
          4.02236938e-01, 7.51313195e-02, 7.10035041e-02, 4.02236938e-01,
          1.10304952e-01, 4.82162446e-01, 8.40715021e-02, 3.46767670e-03,
          2.12908089e-01, 5.88703573e-01, 5.88703573e-01, 6.16363995e-02,
          1.10080428e-02 ]
      - [ 5.15725195e-01, 5.15725195e-01, 9.13267955e-02, 1.02453880e-01,
          3.88427407e-01, 5.15725195e-01, 3.84310111e-02, 0.,
          1.60442561e-01, 4.30160195e-01, 1.08178690e-01, 2.10001767e-01,
          4.30160195e-01, 4.30160195e-01, 4.30160195e-01, 6.66202046e-03,
          1.21104613e-01, 4.30160195e-01, 9.83926505e-02, 6.09596372e-02,
          4.35157865e-01, 3.53486598e-01, 1.25720665e-01, 5.63734537e-03,
          3.65052670e-01, 5.08971334e-01, 5.08971334e-01, 3.49449664e-01,
          1.86566114e-01, 3.73966545e-01, 3.73966545e-01, 3.73966545e-01,
          3.73966545e-01, 1.53657170e-02, 3.73966545e-01, 3.73966545e-01,
          1.90064996e-01, 4.10089970e-01, 4.10089970e-01, 3.39958340e-01,
          4.10089970e-01, 3.19919646e-01, 3.70694250e-02, 2.60363191e-01,
          4.10089970e-01, 1.99439675e-02, 4.72631454e-01, 4.72631454e-01,
          1.09705992e-01, 2.18099859e-02, 2.93351769e-01, 4.72631454e-01,
          4.72631454e-01, 5.28516173e-02, 7.59595484e-02, 3.50062177e-02,
          4.20621365e-01, 5.07336318e-01, 2.61262685e-01, 0., 0.,
          4.77469295e-01, 5.07336318e-01, 3.79757971e-01, 3.79757971e-01,
          1.08379610e-01, 3.79757971e-01, 3.79757971e-01, 3.79757971e-01,
          4.19488437e-02, 3.42642248e-01, 3.79757971e-01, 1.54235035e-01,
          5.15481412e-01, 1.46691516e-01, 0., 2.01139554e-01,
          5.63118935e-01, 5.63118935e-01, 9.17018726e-02, 1.66333467e-02 ]
      - [ 6.75199866e-01, 6.75199866e-01, 0., 0., 5.83485961e-02,
          2.35412717e-02, 0., 0., 2.78407753e-01, 6.29486084e-01,
          2.16166422e-01, 1.76095054e-03, 6.94844350e-02, 2.24883556e-01,
          3.02468091e-01, 8.70906338e-02, 2.50328030e-03, 6.29486084e-01,
          5.03294110e-01, 2.48357467e-02, 7.00778589e-02, 4.24420893e-01,
          1.19796418e-01, 1.36838093e-01, 1.27756685e-01, 5.03294110e-01,
          5.03294110e-01, 4.18125063e-01, 4.18125063e-01, 2.88099080e-01,
          4.18125063e-01, 4.18125063e-01, 4.18125063e-01, 1.45148754e-01,
          8.11459273e-02, 1.05006844e-01, 4.20314401e-01, 1.44616947e-01,
          5.95064834e-02, 4.20314401e-01, 4.20314401e-01, 4.20314401e-01,
          1.96476430e-01, 2.22311050e-01, 4.20314401e-01, 3.39997977e-01,
          3.39997977e-01, 3.39997977e-01, 3.39997977e-01, 2.67981052e-01,
          3.39997977e-01, 3.39997977e-01, 3.39997977e-01, 3.39997977e-01,
          7.49794990e-02, 1.47219658e-01, 3.02183688e-01, 5.37880063e-01,
          5.37880063e-01, 5.37880063e-01, 4.37732302e-02, 5.59018143e-02,
          5.50637506e-02, 2.02221394e-01, 1.43658025e-02, 4.78322878e-02,
          5.34000039e-01, 5.34000039e-01, 2.85109997e-01, 1.89796761e-02,
          1.19009830e-01, 5.34000039e-01, 4.25064683e-01, 1.88226864e-01,
          8.04252476e-02, 1.39495462e-01, 5.06090581e-01, 5.06090581e-01,
          4.51303452e-01, 6.11963235e-02, 1.82301432e-01 ]
      - [ 4.71827418e-01, 4.71827418e-01, 2.80936003e-01, 1.02548741e-01,
          2.83941835e-01, 1.13240890e-01, 1.55918747e-01, 3.46735656e-01,
          4.71827418e-01, 5.10943472e-01, 1.97805122e-01, 3.42615582e-02,
          3.68265063e-01, 5.10943472e-01, 1.52598262e-01, 3.06622498e-03,
          1.11767150e-01, 5.10943472e-01, 3.30949992e-01, 0.,
          7.59984702e-02, 3.69938493e-01, 1.03898242e-01, 1.34145636e-02,
          5.64172268e-02, 6.03183866e-01, 6.03183866e-01, 2.56698221e-01,
          3.41034114e-01, 3.88321072e-01, 3.88321072e-01, 3.88321072e-01,
          1.08541258e-01, 2.19487548e-01, 3.88321072e-01, 3.88321072e-01,
          4.50843245e-01, 2.06417635e-01, 1.11509360e-01, 4.50843245e-01,
          4.50843245e-01, 3.26950729e-01, 1.71890613e-02, 1.42208695e-01,
          4.50843245e-01, 3.40730727e-01, 2.83199638e-01, 3.44586521e-01,
          3.44586521e-01, 2.96341896e-01, 3.44586521e-01, 3.44586521e-01,
          3.44586521e-01, 3.44586521e-01, 2.73394696e-02, 1.22560107e-03,
          1.15576565e-01, 6.10710561e-01, 6.10710561e-01, 7.76320230e-03,
          3.10006505e-03, 2.24802449e-01, 4.28082407e-01, 5.22395670e-01,
          4.10290286e-02, 9.47030261e-03, 3.99250239e-01, 5.65415084e-01,
          3.80101711e-01, 1.49221839e-02, 3.06539834e-02, 3.08137894e-01,
          2.54171640e-01, 1.41163528e-01, 1.07171565e-01, 2.51148064e-02,
          6.50950849e-01, 6.50950849e-01, 2.21106574e-01, 1.65703110e-02,
          1.47521310e-02 ]
      - [ 4.54957008e-01, 4.54957008e-01, 4.40753520e-01, 2.12361366e-01,
          3.72704327e-01, 3.53468806e-01, 1.32367060e-01, 4.06289287e-02,
          2.43109539e-01, 4.90482479e-01, 6.36107922e-02, 7.63641745e-02,
          1.22239321e-01, 4.90482479e-01, 4.90482479e-01, 2.15945747e-02,
          8.67309347e-02, 4.90482479e-01, 2.46664256e-01, 1.58904850e-01,
          4.06641543e-01, 3.82805407e-01, 3.85296941e-01, 8.95511582e-02,
          2.95495659e-01, 4.20722693e-01, 4.20722693e-01, 2.59960741e-01,
          3.57625961e-01, 3.57625961e-01, 3.57625961e-01, 2.37177685e-01,
          3.57625961e-01, 3.57625961e-01, 3.57625961e-01, 3.24370414e-01,
          3.58574450e-01, 3.58574450e-01, 2.91069418e-01, 1.08012192e-01,
          3.58574450e-01, 3.58574450e-01, 3.58574450e-01, 3.58574450e-01,
          3.58574450e-01, 1.87229812e-01, 4.48510885e-01, 4.48510885e-01,
          1.24608085e-01, 9.49973613e-02, 4.48510885e-01, 4.48510885e-01,
          3.57001901e-01, 6.17647022e-02, 7.62878135e-02, 3.10598016e-01,
          5.11216104e-01, 5.11216104e-01, 2.50549942e-01, 1.63269714e-01,
          2.48764932e-01, 2.62271315e-01, 3.87062132e-01, 3.97169590e-01,
          3.97169590e-01, 4.32572700e-02, 3.97169590e-01, 3.97169590e-01,
          3.97169590e-01, 1.62838101e-01, 1.45543024e-01, 3.97169590e-01,
          3.15729886e-01, 4.90786850e-01, 3.91898006e-02, 7.30116793e-04,
          2.53039718e-01, 5.42227268e-01, 5.42227268e-01, 1.17984023e-02,
          1.73927136e-02 ]
      - [ 5.01605392e-01, 5.01605392e-01, 2.92526960e-01, 0.,
          4.69727404e-02, 4.54413205e-01, 4.07552481e-01, 1.55900910e-01,
          8.42644125e-02, 3.92805308e-01, 1.30922005e-01, 1.04656801e-01,
          3.92805308e-01, 3.92805308e-01, 3.92805308e-01, 3.05524558e-01,
          3.21180433e-01, 3.92805308e-01, 1.36072859e-01, 1.50234580e-01,
          4.76198435e-01, 4.76198435e-01, 1.21669933e-01, 2.24473663e-02,
          1.78297833e-01, 4.76198435e-01, 4.76198435e-01, 3.53193991e-02,
          4.62265253e-01, 4.62265253e-01, 1.69058710e-01, 4.95994324e-03,
          3.31949115e-01, 4.62265253e-01, 4.62265253e-01, 2.41435077e-02,
          3.54932994e-01, 4.43638563e-01, 1.32250950e-01, 1.64035782e-01,
          1.81258067e-01, 4.43638563e-01, 4.43638563e-01, 4.43638563e-01,
          7.12586343e-02, 1.74605459e-01, 4.46115404e-01, 4.46115404e-01,
          2.12503687e-01, 2.57827770e-02, 4.46115404e-01, 4.46115404e-01,
          3.23728591e-01, 1.35492578e-01, 5.28951511e-02, 3.54412608e-02,
          4.38429743e-01, 4.38429743e-01, 4.38429743e-01, 4.98839431e-02,
          4.35048491e-01, 4.38429743e-01, 1.75864473e-01, 3.85008425e-01,
          3.85008425e-01, 4.54426184e-02, 3.54819387e-01, 3.85008425e-01,
          3.85008425e-01, 2.16787100e-01, 3.40594262e-01, 3.35059285e-01,
          1.91238314e-01, 5.57702839e-01, 2.45675128e-02, 4.46575665e-04,
          2.16554642e-01, 5.57702839e-01, 5.36906123e-01, 5.10827499e-03,
          0. ]
      - [ 4.72249985e-01, 4.72249985e-01, 4.72249985e-01, 3.57204020e-01,
          4.57187742e-02, 3.03614348e-01, 2.01853603e-01, 4.77866866e-02,
          2.47644871e-01, 3.93380463e-01, 1.63516656e-01, 6.46296442e-02,
          3.60710204e-01, 3.93380463e-01, 3.93380463e-01, 3.93380463e-01,
          2.47593835e-01, 3.93380463e-01, 1.11677319e-01, 1.65096112e-03,
          1.91264451e-01, 4.84426498e-01, 4.84426498e-01, 3.48800458e-02,
          7.88171217e-02, 4.84426498e-01, 4.84426498e-01, 2.52961814e-01,
          4.57332581e-01, 4.57332581e-01, 2.03039378e-01, 2.67193485e-02,
          4.57332581e-01, 4.57332581e-01, 1.78591311e-01, 1.44900531e-01,
          7.91231468e-02, 1.70163989e-01, 7.93827772e-02, 3.50595862e-01,
          4.40142304e-01, 4.40142304e-01, 4.40142304e-01, 4.34678733e-01,
          2.47076660e-01, 2.15518445e-01, 4.04546469e-01, 4.04546469e-01,
          4.04546469e-01, 2.10249528e-01, 2.73120999e-01, 3.93765897e-01,
          4.04546469e-01, 1.45009130e-01, 1.84008181e-02, 1.59366176e-01,
          4.31732386e-01, 4.31732386e-01, 2.77123123e-01, 6.45797700e-02,
          3.78697753e-01, 4.31732386e-01, 4.31732386e-01, 4.36044365e-01,
          1.16416112e-01, 2.46214364e-02, 4.36044365e-01, 4.36044365e-01,
          1.39244378e-01, 1.06878810e-01, 4.36044365e-01, 4.36044365e-01,
          4.52122450e-01, 4.52122450e-01, 7.61519298e-02, 3.35865058e-02,
          3.68907869e-01, 4.52122450e-01, 4.52122450e-01, 1.89882647e-02,
          1.85591519e-01 ]
      - [ 5.70677161e-01, 5.70677161e-01, 5.70677161e-01, 0., 0.,
          3.39331664e-02, 1.11002348e-01, 5.07508479e-02, 3.51500884e-02,
          3.79416794e-01, 3.71382445e-01, 2.77390748e-01, 2.56257743e-01,
          1.77205279e-01, 3.79416794e-01, 3.73829693e-01, 3.35632771e-01,
          3.79416794e-01, 1.81067869e-01, 6.75306693e-02, 4.89186764e-01,
          3.15042734e-01, 7.06100091e-02, 1.40987784e-01, 3.40208560e-01,
          4.89186764e-01, 4.89186764e-01, 5.34863397e-02, 5.28964698e-01,
          5.28964698e-01, 4.11661386e-01, 0., 1.86141700e-01,
          4.61713493e-01, 1.20403767e-01, 2.14261357e-02, 8.40706155e-02,
          4.40982878e-01, 4.40982878e-01, 1.14801392e-01, 3.96076031e-02,
          4.40982878e-01, 4.40982878e-01, 4.40982878e-01, 3.80727351e-02,
          4.11447659e-02, 4.75371182e-01, 4.75371182e-01, 1.04116328e-01,
          8.85207206e-03, 2.78411359e-01, 4.75371182e-01, 4.75371182e-01,
          3.48811932e-02, 0., 1.60953119e-01, 5.30791461e-01,
          5.30791461e-01, 2.44267732e-01, 2.93382388e-02, 5.30791461e-01,
          2.50899553e-01, 9.82268993e-03, 3.65642279e-01, 3.65642279e-01,
          2.50644118e-01, 3.65642279e-01, 3.65642279e-01, 3.59324664e-01,
          3.65642279e-01, 3.65642279e-01, 4.73758020e-02, 2.67363310e-01,
          4.92393076e-01, 2.92158067e-01, 4.35640328e-02, 3.22887987e-01,
          4.92393076e-01, 4.92393076e-01, 6.81603104e-02, 9.46425553e-03 ]
      - [ 5.45209646e-01, 5.45209646e-01, 5.33140488e-02, 2.84564681e-02,
          3.80015969e-01, 3.15926731e-01, 1.67052001e-02, 0.,
          3.89737248e-01, 4.71777350e-01, 2.97064096e-01, 5.47633320e-02,
          9.44717750e-02, 4.71777350e-01, 4.71777350e-01, 0.,
          6.94353580e-02, 4.71777350e-01, 2.94975400e-01, 1.68536589e-01,
          2.52189815e-01, 2.11427614e-01, 2.89131612e-01, 1.54508799e-01,
          4.70501184e-01, 4.70501184e-01, 4.70501184e-01, 3.92223030e-01,
          3.38944256e-01, 2.76513994e-01, 3.61969084e-01, 3.92223030e-01,
          3.92223030e-01, 2.39594713e-01, 3.09143756e-02, 3.92223030e-01,
          4.48487133e-01, 4.48487133e-01, 2.80827403e-01, 9.37620476e-02,
          4.48487133e-01, 4.48487133e-01, 5.24587147e-02, 7.55252922e-03,
          3.17006201e-01, 9.97476131e-02, 4.50775355e-01, 3.91074598e-01,
          8.84276778e-02, 1.04417801e-01, 4.50775355e-01, 4.50775355e-01,
          4.50775355e-01, 3.30510959e-02, 4.43821967e-01, 8.30765665e-02,
          4.43821967e-01, 4.43821967e-01, 4.43821967e-01, 5.75021058e-02,
          1.97104439e-02, 8.96314066e-03, 4.43821967e-01, 4.26408142e-01,
          3.14172477e-01, 2.14296896e-02, 3.98341715e-01, 4.26408142e-01,
          4.26408142e-01, 1.02979243e-01, 5.16265747e-04, 4.26408142e-01,
          2.01761484e-01, 3.16596597e-01, 2.43315939e-02, 7.83001946e-04,
          2.74486423e-01, 6.22282743e-01, 6.22282743e-01, 4.58190888e-02,
          1.84210911e-02 ]
      - [ 6.95698261e-01, 6.95698261e-01, 1.72735248e-02, 0., 0.,
          8.50306824e-02, 8.46965909e-02, 1.49814831e-02, 1.00680292e-01,
          4.65354651e-01, 4.08139497e-01, 5.57018444e-03, 9.68793258e-02,
          3.14146399e-01, 4.65354651e-01, 2.66031086e-01, 1.52333351e-02,
          4.65354651e-01, 3.87635648e-01, 1.36111686e-02, 3.07281375e-01,
          4.38876122e-01, 3.76790404e-01, 1.36642143e-01, 1.10764138e-01,
          4.38876122e-01, 4.38876122e-01, 4.16243315e-01, 4.16243315e-01,
          3.96692395e-01, 4.16243315e-01, 4.16243315e-01, 6.40989020e-02,
          3.32820445e-01, 1.74734622e-01, 5.71928499e-03, 3.18007767e-01,
          2.01139405e-01, 7.14580119e-02, 3.21466118e-01, 2.47439563e-01,
          4.45893139e-01, 4.45893139e-01, 4.45893139e-01, 2.96352834e-01,
          1.34559810e-01, 3.83732915e-01, 3.83732915e-01, 3.83732915e-01,
          2.04056814e-01, 3.83732915e-01, 3.83732915e-01, 3.83732915e-01,
          2.30032668e-01, 0., 6.80417717e-02, 4.05832857e-01,
          6.26086533e-01, 6.26086533e-01, 2.89737305e-04, 9.20346826e-02,
          1.78813875e-01, 2.32741563e-03, 1.90275714e-01, 7.46428668e-02,
          1.20704673e-01, 4.69721615e-01, 4.69721615e-01, 1.03050902e-01,
          2.13984057e-01, 4.69721615e-01, 4.69721615e-01, 4.12548989e-01,
          4.12548989e-01, 2.25413740e-01, 7.16114193e-02, 4.12548989e-01,
          4.12548989e-01, 4.12548989e-01, 8.81615728e-02, 2.84927249e-01 ]
      - [ 5.38787544e-01, 5.38787544e-01, 2.73091644e-01, 0.,
          9.22004357e-02, 5.03761530e-01, 2.30807796e-01, 2.05440260e-02,
          1.53249308e-01, 4.37843710e-01, 1.90418050e-01, 5.41487858e-02,
          4.17169482e-01, 4.37843710e-01, 4.37843710e-01, 1.16459437e-01,
          4.48734388e-02, 4.37843710e-01, 2.59193778e-01, 1.32803787e-02,
          2.84802556e-01, 4.89266872e-01, 1.93881825e-01, 2.07275711e-02,
          3.00794125e-01, 4.89266872e-01, 4.89266872e-01, 7.91805089e-02,
          3.79901499e-01, 3.79901499e-01, 3.79901499e-01, 2.53091045e-02,
          3.64051968e-01, 3.79901499e-01, 3.79901499e-01, 3.67606997e-01,
          6.90683648e-02, 1.18432783e-01, 3.08870137e-01, 3.67195338e-01,
          3.86550963e-01, 3.86550963e-01, 3.86550963e-01, 3.86550963e-01,
          3.86550963e-01, 7.51431808e-02, 3.27977240e-01, 4.40643072e-01,
          4.40643072e-01, 1.93071827e-01, 2.54311681e-01, 4.40643072e-01,
          4.40643072e-01, 6.13714755e-02, 1.10611394e-02, 1.90338921e-02,
          5.90353668e-01, 5.90353668e-01, 4.49768007e-02, 1.26812801e-01,
          2.84685224e-01, 4.17220801e-01, 1.52847141e-01, 3.72845054e-01,
          5.51337898e-02, 1.60610899e-01, 3.72845054e-01, 3.72845054e-01,
          3.65183383e-01, 3.72845054e-01, 3.72845054e-01, 3.72845054e-01,
          3.95644635e-01, 3.67565542e-01, 2.56928384e-01, 1.33204833e-01,
          3.71773154e-01, 3.95644635e-01, 3.95644635e-01, 1.13284186e-01,
          3.95644635e-01 ]
      - [ 6.14904106e-01, 6.14904106e-01, 7.01945946e-02, 0.,
          5.72840683e-04, 4.06833410e-01, 2.40522727e-01, 9.30122361e-02,
          2.65111160e-02, 4.96820271e-01, 4.96820271e-01, 1.87805796e-04,
          4.01566476e-02, 3.60405803e-01, 4.96820271e-01, 1.98293969e-01,
          5.32571003e-02, 2.84403265e-01, 3.60718399e-01, 2.52624661e-01,
          1.79105222e-01, 3.60718399e-01, 3.60718399e-01, 3.60718399e-01,
          3.46109301e-01, 3.60718399e-01, 3.60718399e-01, 2.47820184e-01,
          4.31527108e-01, 4.31527108e-01, 4.31527108e-01, 1.25294000e-01,
          1.33877307e-01, 3.84486735e-01, 4.31527108e-01, 8.92212540e-02,
          2.30277836e-01, 1.97094589e-01, 2.17998903e-02, 2.44265661e-01,
          9.93583277e-02, 4.56495672e-01, 4.56495672e-01, 4.56495672e-01,
          4.56495672e-01, 3.92176598e-01, 3.92176598e-01, 3.92176598e-01,
          1.30729094e-01, 1.67111993e-01, 3.92176598e-01, 3.92176598e-01,
          2.21625820e-01, 3.64602953e-01, 0., 9.75550786e-02,
          4.06174213e-01, 6.62662625e-01, 5.64230025e-01, 2.19976138e-02,
          1.19002461e-01, 2.13213250e-01, 3.61550041e-02, 3.26656520e-01,
          2.34821048e-02, 2.76803598e-02, 4.58759129e-01, 4.58759129e-01,
          1.47944316e-01, 1.53845295e-01, 4.58759129e-01, 4.58759129e-01,
          4.46476907e-01, 4.46476907e-01, 4.59020883e-02, 4.91848104e-02,
          4.46476907e-01, 4.46476907e-01, 2.99725652e-01, 2.24779341e-02,
          3.21413845e-01 ]
      - [ 5.70485115e-01, 5.70485115e-01, 8.64107832e-02, 0.,
          1.66481230e-02, 5.55392027e-01, 1.59910291e-01, 1.96478479e-02,
          3.51447128e-02, 4.47058499e-01, 3.44915330e-01, 1.52258798e-01,
          2.16823816e-01, 4.47058499e-01, 4.47058499e-01, 3.67400013e-02,
          7.46824145e-02, 4.47058499e-01, 2.38833666e-01, 1.12216227e-01,
          4.37495530e-01, 3.25345188e-01, 3.07377905e-01, 8.12628269e-02,
          3.80597591e-01, 4.37495530e-01, 4.37495530e-01, 3.57118577e-01,
          3.57118577e-01, 3.57118577e-01, 3.57118577e-01, 2.98931122e-01,
          3.57118577e-01, 3.57118577e-01, 3.57118577e-01, 1.19735353e-01,
          8.39963183e-02, 3.74179780e-01, 3.74179780e-01, 2.93629646e-01,
          3.10782254e-01, 3.74179780e-01, 3.26113343e-01, 3.74179780e-01,
          3.74179780e-01, 9.43369046e-03, 4.84596938e-01, 4.84596938e-01,
          7.23215267e-02, 4.53247279e-02, 2.15848729e-01, 4.84596938e-01,
          4.84596938e-01, 4.31148410e-02, 1.23410064e-04, 5.24384044e-02,
          4.30938393e-01, 4.30938393e-01, 4.30938393e-01, 2.94413000e-01,
          4.30938393e-01, 3.94964278e-01, 8.62439498e-02, 1.47026181e-01,
          4.25883502e-01, 1.93163410e-01, 4.25883502e-01, 4.25883502e-01,
          1.51535973e-01, 8.34870636e-02, 4.25883502e-01, 4.25883502e-01,
          9.26224068e-02, 4.73932028e-01, 2.02325001e-01, 1.52270928e-01,
          4.73932028e-01, 4.73932028e-01, 4.73932028e-01, 1.14111066e-01,
          1.05347000e-01 ]
      - [ 6.67860985e-01, 6.67860985e-01, 2.93688208e-01, 0.,
          1.87701813e-03, 4.54045134e-03, 8.07864766e-04, 0.,
          1.22386329e-01, 5.34346402e-01, 3.33684385e-01, 2.30186759e-03,
          2.81490665e-02, 1.68532208e-01, 3.72984469e-01, 1.44629374e-01,
          3.50756884e-01, 5.34346402e-01, 3.91276777e-01, 6.29479438e-03,
          1.64235458e-01, 3.24488699e-01, 3.83553326e-01, 1.45031005e-01,
          4.65635248e-02, 5.19180298e-01, 5.19180298e-01, 4.75738972e-01,
          4.75738972e-01, 4.75738972e-01, 4.75738972e-01, 1.15476273e-01,
          2.16148421e-01, 1.52425572e-01, 6.93183616e-02, 4.29477058e-02,
          4.58636284e-01, 1.47826940e-01, 3.05096265e-02, 1.09317206e-01,
          3.55123222e-01, 4.58636284e-01, 4.58636284e-01, 1.28116339e-01,
          4.32570130e-01, 3.35420907e-01, 3.35420907e-01, 3.35420907e-01,
          3.21659416e-01, 3.35420907e-01, 3.35420907e-01, 3.32980633e-01,
          3.27512920e-01, 3.35420907e-01, 4.39083278e-02, 3.32055725e-02,
          5.68363070e-01, 5.68363070e-01, 5.68363070e-01, 6.53645098e-02,
          1.05643414e-01, 7.00035170e-02, 4.30190451e-02, 4.80274528e-01,
          4.70328890e-02, 1.15347672e-02, 4.20654327e-01, 4.80274528e-01,
          4.33965087e-01, 9.81280506e-02, 6.92054555e-02, 3.89661998e-01,
          5.25129795e-01, 2.38408238e-01, 1.28237801e-02, 4.42135567e-03,
          5.55549145e-01, 5.55549145e-01, 2.00123176e-01, 4.04520100e-03,
          6.58265501e-02 ]
      - [ 5.26853740e-01, 5.26853740e-01, 1.22755893e-01, 1.66618899e-02,
          5.65650128e-02, 2.55363435e-01, 2.72616267e-01, 6.27502650e-02,
          5.26853740e-01, 4.44840670e-01, 3.44886780e-01, 5.73460273e-02,
          2.67083466e-01, 4.44840670e-01, 4.44840670e-01, 8.73669609e-02,
          5.31185605e-02, 4.44840670e-01, 3.34316760e-01, 1.46377444e-01,
          3.58418882e-01, 3.98707360e-01, 2.64550835e-01, 3.46783437e-02,
          3.30993176e-01, 4.43955809e-01, 4.43955809e-01, 3.00863206e-01,
          3.55862379e-01, 3.55862379e-01, 3.55862379e-01, 3.55862379e-01,
          3.55862379e-01, 3.55862379e-01, 3.55862379e-01, 1.39497533e-01,
          1.38129160e-01, 3.61249149e-01, 3.61249149e-01, 3.36715400e-01,
          3.61249149e-01, 3.61249149e-01, 3.61249149e-01, 3.61249149e-01,
          2.84478873e-01, 2.34607458e-02, 4.48132038e-01, 4.48132038e-01,
          2.14882120e-01, 9.16334093e-02, 4.48132038e-01, 4.48132038e-01,
          3.49647522e-01, 1.21899888e-01, 0., 2.17498206e-02,
          5.06698728e-01, 5.06698728e-01, 5.06698728e-01, 1.01103149e-01,
          3.21388617e-02, 4.53852266e-01, 8.36595818e-02, 1.84539229e-01,
          3.95745814e-01, 2.39324853e-01, 3.95745814e-01, 3.95745814e-01,
          3.41112018e-01, 7.26932436e-02, 3.95745814e-01, 3.95745814e-01,
          1.65818781e-01, 5.20912826e-01, 1.61978960e-01, 9.74072367e-02,
          3.13454986e-01, 5.20912826e-01, 5.20912826e-01, 7.13700429e-02,
          1.19072564e-01 ]
      - [ 5.91808259e-01, 5.91808259e-01, 9.75639299e-02, 0.,
          4.35970537e-02, 4.38367635e-01, 2.50297904e-01, 1.87813528e-02,
          1.64405733e-01, 4.64613676e-01, 2.15879485e-01, 6.05164319e-02,
          2.10350126e-01, 4.64613676e-01, 4.64613676e-01, 1.86661035e-01,
          5.03993817e-02, 4.64613676e-01, 2.00141251e-01, 1.64185748e-01,
          4.32022810e-01, 4.32022810e-01, 2.38132983e-01, 3.11412252e-02,
          3.52730751e-01, 4.32022810e-01, 4.32022810e-01, 3.74745578e-01,
          3.74745578e-01, 3.74745578e-01, 3.74745578e-01, 1.06664814e-01,
          3.74745578e-01, 3.74745578e-01, 3.74745578e-01, 4.28818464e-02,
          2.16169193e-01, 4.10367161e-01, 4.10367161e-01, 1.52560204e-01,
          4.10367161e-01, 4.10367161e-01, 4.10367161e-01, 2.79059500e-01,
          7.75673017e-02, 3.68258916e-02, 4.89689678e-01, 4.89689678e-01,
          1.63972691e-01, 7.97466412e-02, 2.82657534e-01, 4.89689678e-01,
          3.86294246e-01, 1.09544583e-01, 4.48457599e-02, 6.29617572e-02,
          4.78903532e-01, 4.78903532e-01, 2.55174577e-01, 2.59162355e-02,
          4.37426418e-01, 4.78903532e-01, 2.09923774e-01, 3.71181428e-01,
          3.71181428e-01, 6.26104847e-02, 3.71181428e-01, 3.71181428e-01,
          3.71181428e-01, 1.75682962e-01, 3.67223680e-01, 3.71181428e-01,
          2.68566668e-01, 5.23454607e-01, 1.61478072e-01, 7.34745758e-04,
          2.71828622e-01, 5.23454607e-01, 5.23454607e-01, 2.41439641e-02,
          8.98470450e-03 ]
      - [ 5.51411331e-01, 5.51411331e-01, 1.73457563e-01, 7.36028934e-03,
          1.38929054e-01, 4.72163767e-01, 1.62627809e-02, 1.04929572e-02,
          3.37088257e-01, 4.94341671e-01, 1.02925964e-01, 2.09356435e-02,
          8.04994181e-02, 4.94341671e-01, 4.94341671e-01, 7.38229370e-04,
          7.43183773e-03, 4.94341671e-01, 4.42216545e-01, 1.71802819e-01,
          1.99334830e-01, 3.12529147e-01, 4.00647312e-01, 7.65353069e-02,
          2.74982661e-01, 4.42216545e-01, 4.42216545e-01, 3.65240574e-01,
          3.65240574e-01, 3.65240574e-01, 3.65240574e-01, 1.74829796e-01,
          3.65240574e-01, 3.65240574e-01, 3.65240574e-01, 1.78831622e-01,
          3.49402219e-01, 3.75900447e-01, 3.75900447e-01, 1.31340042e-01,
          3.75900447e-01, 3.75900447e-01, 9.54241455e-02, 3.75900447e-01,
          3.75900447e-01, 6.24558702e-02, 4.33456749e-01, 4.33456749e-01,
          1.83055013e-01, 2.02009305e-01, 4.33456749e-01, 4.33456749e-01,
          3.91969472e-01, 1.10785738e-01, 4.87548597e-02, 2.59805601e-02,
          3.74800503e-01, 5.96138656e-01, 1.86361894e-01, 4.65251692e-03,
          7.28303343e-02, 5.96138656e-01, 3.15754533e-01, 4.02053565e-01,
          2.37712502e-01, 7.08118454e-02, 4.02053565e-01, 4.02053565e-01,
          3.76646906e-01, 1.54556055e-02, 3.81800711e-01, 4.02053565e-01,
          3.57451200e-01, 4.60976124e-01, 2.77598053e-01, 4.15128795e-03,
          3.59442562e-01, 4.60976124e-01, 4.60976124e-01, 5.45140915e-02,
          1.44494280e-01 ]
      - [ 3.91958535e-01, 3.91958535e-01, 3.91958535e-01, 2.10217480e-02,
          3.30105752e-01, 3.45894068e-01, 3.91958535e-01, 3.00742954e-01,
          2.49113709e-01, 3.47848266e-01, 3.47848266e-01, 3.47848266e-01,
          3.47848266e-01, 3.47848266e-01, 3.47848266e-01, 3.47848266e-01,
          2.02036545e-01, 3.29722285e-01, 1.07472949e-01, 2.53994185e-02,
          4.50809687e-01, 4.50809687e-01, 1.03441983e-01, 1.76578220e-02,
          3.99214029e-01, 4.50809687e-01, 4.50809687e-01, 1.65652499e-01,
          3.35856557e-01, 4.36310440e-01, 4.36310440e-01, 2.01924175e-01,
          8.64407867e-02, 4.27473128e-01, 4.36310440e-01, 2.30916187e-01,
          1.38797760e-01, 3.78764063e-01, 3.78764063e-01, 2.53354102e-01,
          3.78764063e-01, 2.28012219e-01, 3.78764063e-01, 3.78764063e-01,
          3.78764063e-01, 4.26477641e-02, 4.76848334e-01, 4.76848334e-01,
          1.89941570e-01, 3.21550854e-02, 2.14980781e-01, 4.76848334e-01,
          4.76848334e-01, 2.35089697e-02, 0., 3.56417778e-03,
          5.25263548e-01, 5.25263548e-01, 1.89006299e-01, 0.,
          1.36322519e-02, 5.25263548e-01, 3.62114578e-01, 3.99878949e-01,
          2.92965442e-01, 1.73844054e-01, 3.99878949e-01, 3.99878949e-01,
          2.81108826e-01, 3.76389734e-02, 3.99878949e-01, 3.99878949e-01,
          3.87563497e-01, 4.62641299e-01, 1.45319343e-01, 2.28035878e-02,
          3.98319215e-01, 4.62641299e-01, 4.62641299e-01, 7.47029781e-02,
          1.31095842e-01 ]
      - [ 4.87619251e-01, 4.87619251e-01, 4.87619251e-01, 2.67179817e-01,
          6.79750890e-02, 7.84464180e-03, 4.91079874e-02, 1.44436076e-01,
          4.27166998e-01, 4.21678066e-01, 9.93452519e-02, 2.14392126e-01,
          4.21678066e-01, 4.21678066e-01, 8.48232433e-02, 2.09039018e-01,
          4.21678066e-01, 4.21678066e-01, 4.07721065e-02, 1.34140579e-02,
          2.38416150e-01, 5.38664460e-01, 2.43920028e-01, 7.89791998e-03,
          7.68019035e-02, 5.38664460e-01, 5.38664460e-01, 1.96899354e-01,
          4.37125266e-01, 4.37125266e-01, 1.63410187e-01, 2.97840834e-01,
          2.14801669e-01, 4.37125266e-01, 4.37125266e-01, 1.76063582e-01,
          3.07963312e-01, 3.16067249e-01, 2.27606475e-01, 3.53535324e-01,
          3.53535324e-01, 3.53535324e-01, 3.53535324e-01, 3.53535324e-01,
          3.53535324e-01, 1.51012674e-01, 4.03527349e-01, 4.03527349e-01,
          4.03527349e-01, 8.50832462e-02, 3.24407667e-01, 4.03527349e-01,
          4.03527349e-01, 2.15668291e-01, 8.78446829e-03, 8.74642730e-02,
          5.04455924e-01, 5.04455924e-01, 5.04455924e-01, 6.64157644e-02,
          1.86022520e-01, 3.04829717e-01, 3.03102016e-01, 4.59634691e-01,
          2.27531627e-01, 4.12894562e-02, 3.41213197e-01, 4.59634691e-01,
